Language model created by QuickLM on Tue Apr 28 00:22:14 EDT 2009
Copyright (c) 1996-2000
Carnegie Mellon University and Alexander I. Rudnicky

This model based on a corpus of 250 sentences and 1085 words
The (fixed) discount mass is 0.5

\data\
ngram 1=1085
ngram 2=3091
ngram 3=3663

\1-grams:
-3.9411 (KIRSTEN -0.3010
-3.9411 - -0.2998
-2.8997 -- -0.2737
-3.9411 10 -0.3009
-3.9411 100 -0.3009
-3.9411 12 -0.2954
-3.9411 120 -0.2988
-3.6401 13 -0.2953
-3.9411 14 -0.3009
-3.6401 1918 -0.3005
-3.9411 1918, -0.2999
-3.9411 192 -0.2996
-3.9411 2 -0.2959
-3.4640 20 -0.2980
-3.4640 20% -0.2977
-3.9411 2009, -0.3010
-3.9411 20TH -0.3010
-3.6401 24 -0.3008
-3.9411 25, -0.3009
-3.9411 26, -0.3010
-3.9411 365, -0.2997
-3.6401 40 -0.3006
-3.9411 44,000 -0.3010
-3.9411 5 -0.2959
-3.6401 5% -0.2977
-3.9411 5'O -0.3010
-3.9411 50 -0.2954
-3.9411 800 -0.3010
-3.4640 86 -0.2866
-3.6401 86, -0.2972
-1.5432 </s> -0.3010
-1.5432 <s> -0.2096
-2.5261 ? -0.2410
-3.9411 ?? -0.2884
-3.9411 ??? -0.2884
-3.9411 ??AND -0.3008
-3.9411 ?FROM -0.3010
-2.0490 A -0.2924
-3.9411 ABILITY -0.2959
-3.6401 ABLE -0.2959
-2.6189 ABOUT -0.2614
-3.9411 ABOUT, -0.3000
-3.9411 ABSOLUTELY, -0.3002
-3.9411 ACCESS -0.2980
-3.9411 ACCIDENTS -0.2978
-3.9411 ACCORDING -0.3010
-3.6401 ACROSS -0.2910
-3.9411 ACTUAL -0.3002
-3.1630 ACTUALLY -0.2952
-3.9411 ACTUALLY, -0.3010
-3.6401 ADAM -0.3008
-3.6401 AEROSOLIZED -0.3006
-3.9411 AFFECTED -0.3009
-3.9411 AGE, -0.3002
-3.9411 AGENCIES -0.2988
-3.9411 AGENDA -0.2989
-3.9411 AGO -0.2954
-3.2421 AIR -0.2950
-3.4640 AIRBORNE -0.3007
-3.9411 AIRPORTS -0.2954
-2.7950 ALL -0.2788
-3.9411 ALONE -0.3007
-3.4640 ALREADY -0.2991
-3.0380 ALSO -0.2842
-3.9411 ALSO, -0.3002
-3.6401 ALWAYS -0.2977
-2.8997 AM -0.2980
-3.9411 AMAZING -0.2996
-3.9411 AMERICA, -0.3006
-3.9411 AMONG -0.2993
-3.0380 AN -0.3002
-1.8880 AND -0.2431
-3.9411 AND? -0.2884
-3.9411 ANGLE, -0.2956
-3.3391 ANOTHER -0.2998
-3.6401 ANY -0.3008
-3.6401 ANYTHING -0.2831
-3.9411 ANYWHERE -0.3002
-3.6401 AOL -0.2884
-3.9411 APPLE, -0.2956
-3.9411 APRIL -0.3010
-2.2879 ARE -0.2662
-3.6401 ARE, -0.2946
-3.9411 AREAS -0.3008
-3.9411 AREN'T -0.3010
-3.9411 ARMIES -0.2988
-3.9411 ARMY -0.2969
-3.9411 ARMY, -0.2956
-3.4640 AROUND -0.2910
-3.4640 ARTICLE -0.2968
-2.8272 AS -0.2753
-3.6401 ASIA, -0.2913
-3.9411 ASPECT -0.2977
-3.9411 ASSUME -0.3007
-2.8619 AT -0.2815
-3.9411 ATTACK, -0.3009
-3.4640 AUDIBLE -0.2869
-3.9411 AUDIBLE_COM; -0.2954
-3.9411 AVERAGE -0.3008
-3.6401 AVIAN -0.2999
-3.9411 BABIES -0.2954
-3.4640 BACK -0.3001
-3.9411 BACKWARDS? -0.2884
-3.9411 BACTERIAL -0.2997
-3.9411 BACTERIAL, -0.2996
-3.4640 BAD -0.3007
-3.9411 BANDWIDTH -0.2996
-3.6401 BAR -0.2995
-3.9411 BASIS -0.3006
-3.9411 BATTLESHIP -0.2884
-3.9411 BATTLESHIP? -0.2884
-2.6189 BE -0.2841
-2.6401 BECAUSE -0.2725
-3.4640 BECOME -0.2971
-3.9411 BECOMES -0.3008
-3.0960 BEEN -0.2944
-3.9411 BEES -0.2996
-3.9411 BEFORE, -0.2999
-3.9411 BEGIN -0.3002
-3.4640 BEING -0.2960
-3.9411 BELIEVE, -0.3007
-3.9411 BELONGS? -0.2954
-3.9411 BEST -0.3007
-3.9411 BETS, -0.3010
-3.9411 BETTER -0.3010
-3.9411 BETWEEN -0.3010
-3.3391 BIG -0.3002
-3.9411 BIGGER -0.3010
-3.9411 BIGGEST -0.3009
-3.4640 BIRD -0.2994
-3.9411 BIRDS -0.2959
-3.6401 BITS -0.2850
-3.9411 BIZ -0.3010
-3.9411 BLANKET -0.3009
-3.9411 BODY'S -0.3008
-3.6401 BOOKS -0.2873
-3.9411 BOOM -0.3002
-3.9411 BORNE -0.2884
-3.9411 BOUGHT -0.2971
-3.9411 BRAIN -0.3010
-3.9411 BRAINS, -0.3010
-3.9411 BRANCHES -0.2977
-3.9411 BREAKFAST -0.3002
-3.9411 BREATHING -0.3010
-3.6401 BRIAN -0.2972
-3.9411 BROADCAST -0.2884
-3.9411 BROUGHT -0.2959
-3.9411 BRUSHWOOD?? -0.2884
-3.9411 BRUTALLY -0.3010
-3.9411 BS? -0.2884
-3.9411 BUDDY -0.2954
-3.9411 BUSINESS -0.3010
-3.9411 BUST? -0.2884
-2.4787 BUT -0.2632
-3.9411 BUT, -0.2997
-3.3391 BY -0.2967
-3.9411 BY; -0.3009
-3.4640 CALACANIS -0.2884
-3.3391 CALL -0.2939
-3.9411 CAME -0.3009
-2.9869 CAN -0.2963
-3.4640 CAN'T -0.3003
-3.9411 CAPRICORN -0.2884
-3.6401 CAR -0.2884
-3.9411 CATCH -0.2915
-3.4640 CATHERINE -0.2845
-3.9411 CATHERINE, -0.3006
-3.9411 CATHERINEHALL -0.2884
-3.9411 CAUSE -0.2996
-3.9411 CAUSED -0.2915
-3.3391 CDC -0.2915
-3.9411 CDC, -0.2956
-3.9411 CENTER -0.2996
-3.9411 CENTERS -0.2996
-3.9411 CENTURY -0.2954
-3.9411 CERTAIN -0.3010
-3.9411 CERTAINLY, -0.2980
-3.9411 CHAT -0.3010
-3.9411 CHATTER -0.2884
-3.6401 CHEAP -0.3009
-3.9411 CITY, -0.2956
-3.9411 CLEANER -0.2954
-3.9411 CLICK -0.2995
-3.9411 CLICKING -0.2995
-3.9411 CLOCK -0.3010
-3.9411 CLOSE -0.3010
-3.9411 CLOSER -0.2959
-3.9411 CO-HOST -0.2995
-3.9411 COLLEEN -0.3009
-3.9411 COLUMBIA, -0.2956
-3.6401 COM -0.2884
-3.9411 COM/PODCASTING -0.2884
-3.9411 COM/TWIT -0.2884
-3.9411 COM/TWIT2 -0.2884
-3.0960 COME -0.2961
-3.9411 COMES -0.3002
-3.6401 COMING -0.3002
-3.9411 COMMUNICATION -0.2954
-3.9411 COMMUNICATION, -0.2959
-3.9411 COMPANY -0.2969
-3.9411 COMPARED -0.2959
-3.6401 COMPLETELY -0.3009
-3.9411 COMPROMISE, -0.3000
-3.6401 COMPROMISED -0.2831
-3.9411 COMPUTER? -0.2884
-3.9411 CONCERN -0.2884
-3.9411 CONCERN, -0.2954
-3.4640 CONCERNED -0.2958
-3.9411 CONDITIONS -0.2977
-3.9411 CONNECTED -0.2954
-3.9411 CONSONANTS -0.2954
-3.4640 CONSPIRACY -0.2883
-3.9411 CONSPIRACY, -0.2980
-3.9411 CONSPIRACY? -0.2996
-3.6401 CONTACT -0.3002
-3.9411 CONTAGIOUS -0.3010
-3.6401 CONTAGIOUS, -0.2992
-3.6401 CONTAIN -0.3008
-3.9411 CONTEMPORARY, -0.2997
-3.9411 CONTRACTED -0.2915
-3.9411 CONTROL -0.2973
-3.9411 CONTROL, -0.2996
-3.9411 COSTS -0.2997
-3.9411 COUGH, -0.3005
-3.9411 COUGHING, -0.3010
-3.0960 COULD -0.2950
-3.9411 COULDN'T -0.3000
-3.9411 COUPLE -0.2977
-3.9411 COURSE, -0.3009
-3.9411 COURTEOUS, -0.2997
-3.9411 COVER -0.2915
-3.9411 COVER, -0.3003
-3.9411 COVERED -0.3006
-3.9411 COVERS -0.3003
-3.9411 CRAZINESS -0.2884
-3.9411 CREATED -0.3010
-3.9411 CROWDED, -0.2954
-3.9411 CURRY -0.3010
-3.6401 CYCLE, -0.2953
-3.9411 CYTOKINE -0.3010
-3.9411 DAILY -0.3010
-3.2421 DANGEROUS -0.2811
-3.4640 DAY -0.2816
-3.6401 DAYS -0.2958
-3.4640 DAYS, -0.2964
-3.9411 DEATH -0.3010
-3.9411 DEATHS -0.3004
-3.9411 DEGREE -0.2969
-3.9411 DELL -0.3010
-3.9411 DEPARTMENT -0.3000
-3.9411 DEPLORABLE -0.2884
-3.9411 DESIGNED -0.2989
-3.9411 DESKTOP -0.3010
-3.9411 DETERMINE -0.3010
-3.9411 DEVELOPING -0.3007
-3.4640 DID -0.2844
-3.6401 DIDN'T -0.2992
-3.9411 DIE -0.3008
-3.0960 DIED -0.2877
-3.9411 DIED, -0.2954
-3.4640 DIFFERENT -0.3009
-3.9411 DIFFERENT? -0.2884
-3.9411 DIGITAL -0.3009
-3.9411 DIRECTLY -0.2959
-3.3391 DISEASE -0.2876
-3.6401 DISEASE, -0.2857
-3.9411 DIVIDED -0.3008
-2.9411 DO -0.2799
-3.9411 DOCTOR -0.2997
-3.9411 DOES -0.2992
-3.4640 DOESN'T -0.2985
-3.3391 DOING -0.2861
-3.9411 DOLLAR -0.3002
-3.9411 DOMAIN -0.3010
-2.7107 DON'T -0.2926
-3.9411 DOTS -0.2995
-3.9411 DOUBLE -0.3005
-3.4640 DOWN -0.2970
-3.9411 DR -0.2884
-3.9411 DUDE, -0.2997
-3.3391 DYING -0.2946
-3.9411 EARLIER -0.3010
-3.6401 EARLY -0.3003
-3.9411 EASILY, -0.2954
-3.9411 EAST, -0.2954
-3.9411 EATING -0.3009
-3.9411 EDITION -0.2977
-3.9411 EGYPT -0.2996
-3.9411 EIGHT -0.3010
-3.9411 ELDERLY, -0.2993
-3.9411 EMBARRASSED -0.3000
-3.4640 END -0.2973
-3.2421 ENOUGH -0.2945
-3.9411 ENTIRE -0.3008
-3.6401 EPIDEMIOLOGISTS -0.2967
-3.9411 EPISODE -0.3010
-3.9411 ESPECIALLY -0.3008
-3.9411 ESSENTIALLY -0.2884
-3.6401 EUROPE, -0.2954
-3.9411 EVAN -0.3010
-3.2421 EVEN -0.2960
-3.9411 EVER? -0.2884
-3.9411 EVERY -0.3007
-3.9411 EVERYBODY -0.3010
-3.9411 EVERYBODY'S -0.3005
-3.9411 EVERYBODY, -0.3009
-3.9411 EVERYONE -0.2959
-3.9411 EVERYTHING -0.2956
-3.9411 EVERYWHERE -0.2884
-3.9411 EXACTLY -0.2954
-3.9411 EXPERTS -0.2959
-3.6401 EXPOSED -0.2959
-3.1630 FACT -0.2864
-3.9411 FACTORS, -0.3008
-3.9411 FAILED -0.3008
-3.9411 FALSE -0.3009
-3.9411 FARTHEST -0.2956
-3.9411 FATAL -0.2996
-3.6401 FATALITIES -0.2861
-3.9411 FATALITY -0.3010
-3.9411 FEDERAL -0.3009
-3.9411 FEEL -0.2997
-3.9411 FEW -0.3010
-3.9411 FIGURE -0.2956
-3.9411 FINALLY, -0.3009
-3.6401 FINANCE -0.3009
-3.9411 FIND -0.2971
-3.9411 FINE -0.2884
-3.9411 FIRE -0.3010
-3.9411 FIRE, -0.2915
-3.6401 FIVE -0.3009
-3.9411 FLIP-SIDE -0.3007
-2.7107 FLU -0.2667
-3.2421 FLU, -0.2839
-3.9411 FLU? -0.2884
-3.9411 FLUS, -0.2915
-3.6401 FLYING -0.2976
-3.9411 FOLKS -0.3007
-3.4640 FOLLOW -0.3001
-2.4940 FOR -0.2603
-3.9411 FORM -0.2977
-3.9411 FORT -0.3010
-3.9411 FORTH, -0.2954
-3.6401 FREE -0.3009
-3.9411 FRESH -0.3009
-3.6401 FRIEND -0.2947
-3.9411 FRIENDFEED -0.2954
-2.7107 FROM -0.2808
-3.9411 FUNDED -0.3004
-3.9411 FUNDED, -0.3002
-3.9411 FX -0.3010
-3.9411 GAME -0.2995
-3.9411 GAMES -0.2884
-3.9411 GAMING -0.3010
-3.9411 GAMING? -0.2884
-3.6401 GARAGE -0.2882
-3.9411 GARAGE, -0.2973
-3.4640 GATEWAY -0.2883
-3.6401 GATEWAY, -0.2956
-3.6401 GAVE -0.2966
-3.9411 GEEK, -0.3004
-3.6401 GENTLEMEN, -0.3003
-2.8272 GET -0.2817
-3.9411 GETS -0.3008
-3.4640 GETTING -0.3004
-3.4640 GO -0.2954
-3.6401 GO, -0.3005
-3.9411 GOD -0.2884
-3.9411 GOD, -0.2956
-2.6401 GOING -0.2827
-3.9411 GOING? -0.2884
-3.0960 GOOD -0.2878
-3.9411 GOODNESS -0.2884
-3.3391 GOOGLE -0.3008
-3.2421 GOT -0.2824
-3.6401 GOTOMYPC -0.2884
-3.9411 GOTOMYPC, -0.3010
-3.4640 GOVERNMENT -0.2931
-3.9411 GRABBING -0.2995
-3.9411 GRAPHICS -0.3010
-3.1630 GREAT -0.2954
-3.6401 GREAT, -0.2981
-3.6401 GREATEST -0.3008
-3.4640 GUESS -0.2907
-3.9411 H1N1 -0.3010
-3.1630 HAD -0.2837
-3.9411 HADN'T -0.3009
-3.4640 HALF -0.2882
-3.9411 HALF, -0.3005
-3.9411 HALL, -0.3003
-3.6401 HAND -0.2884
-3.9411 HANDS -0.2884
-3.6401 HANDS, -0.2995
-3.9411 HAPPEN -0.2959
-3.6401 HAPPEN, -0.2989
-3.9411 HAPPENED -0.2959
-3.9411 HAPPENING -0.3002
-3.3391 HAS -0.3000
-3.4640 HATERS -0.2881
-2.3848 HAVE -0.2588
-3.4640 HAVEN'T -0.3005
-3.6401 HAVING -0.2863
-3.4640 HE -0.2955
-3.9411 HE'S -0.3009
-3.9411 HEAD -0.2954
-3.2421 HEALTH -0.3006
-3.9411 HEALTHIER -0.2954
-3.4640 HEARD -0.2875
-3.9411 HEAVY -0.2973
-3.9411 HECK -0.2973
-3.9411 HELLO, -0.3009
-3.9411 HELP -0.2884
-3.9411 HELP? -0.2884
-3.9411 HELPFUL, -0.2956
-3.9411 HER -0.3010
-3.2421 HERE, -0.2939
-3.9411 HERSELF -0.2884
-3.9411 HERSELF, -0.3009
-3.9411 HEY -0.3009
-3.6401 HIGH -0.3009
-3.9411 HIGH? -0.2884
-3.6401 HIS -0.3008
-3.9411 HOME -0.2954
-3.9411 HOMIES -0.2884
-3.9411 HONEST -0.3008
-3.9411 HOPE -0.2996
-3.9411 HOSPITAL, -0.3008
-3.9411 HOST -0.2977
-3.3391 HOUR -0.2950
-3.9411 HOURS, -0.3005
-3.0380 HOW -0.2838
-3.6401 HOWDY -0.2884
-3.9411 HUGE -0.3006
-3.9411 HUMAN -0.3010
-3.9411 HYGIENE -0.3010
-3.4640 HYSTERIA -0.2826
-1.9077 I -0.2732
-2.9411 I'M -0.2984
-3.9411 I'VE -0.3007
-3.9411 ID -0.3010
-3.6401 IDEA -0.2955
-3.9411 IDEA, -0.2980
-2.7370 IF -0.2819
-3.9411 IF, -0.2973
-3.9411 IGNORE -0.3010
-3.9411 IMAGINE -0.2884
-3.3391 IMMUNE -0.3007
-3.9411 IMMUNITIES -0.2969
-3.9411 IMPACTED -0.2996
-3.6401 IMPORTANT -0.2993
-2.1282 IN -0.2749
-3.9411 INCIDENCES -0.2977
-3.6401 INCREDIBLY -0.2977
-3.9411 INDIA, -0.3008
-3.9411 INDIAN -0.3010
-3.9411 INFECTING -0.3006
-3.9411 INFLUENZA, -0.2997
-3.9411 INFOWARS -0.3008
-3.9411 INITIALLY, -0.3003
-3.9411 INSTANT -0.3010
-3.9411 INSTANTLY -0.2999
-3.9411 INSTIGATE -0.3008
-3.9411 INTELLIGENT -0.2884
-3.9411 INTERCONNECTED -0.2954
-3.2421 INTERESTING -0.2934
-3.4640 INTERESTING, -0.2919
-3.6401 INTERNATIONAL -0.3008
-3.2421 INTO -0.2911
-2.0661 IS -0.2321
-3.1630 IS, -0.2872
-3.9411 IS? -0.2884
-3.9411 ISN'T -0.2980
-3.9411 ISSUES, -0.2980
-2.1630 IT -0.2474
-2.3729 IT'S -0.2696
-3.4640 IT, -0.2979
-3.6401 IT? -0.2874
-3.9411 ITS -0.3010
-3.9411 ITSELF -0.2884
-3.9411 JAPAN -0.2954
-3.9411 JAPAN, -0.2997
-3.9411 JAPAN? -0.2884
-3.4640 JASON -0.3009
-3.6401 JASON, -0.2969
-3.9411 JOB -0.2884
-3.9411 JOB, -0.2956
-3.9411 JOBS -0.3002
-3.9411 JUMP -0.2978
-2.7370 JUST -0.2812
-3.9411 JUST? -0.2884
-3.9411 KANSAS -0.3002
-3.6401 KEEP -0.3001
-3.9411 KICK -0.2983
-3.9411 KIKI -0.3010
-3.9411 KIKI, -0.3006
-3.9411 KILLED -0.3010
-3.9411 KILLED, -0.2915
-3.9411 KILLER -0.3010
-3.9411 KIND -0.2977
-3.9411 KIPPLE -0.2954
-3.9411 KIRSTEN -0.3010
-2.5794 KNOW -0.2754
-3.6401 KNOW, -0.3004
-3.9411 KNOWLEDGE -0.2954
-3.9411 KNOWN -0.2996
-3.9411 KNOWS, -0.3010
-3.6401 LADIES -0.2954
-3.9411 LAPTOP -0.3010
-3.9411 LAPTOP, -0.3004
-3.4640 LAST -0.2992
-3.9411 LEARN -0.3006
-3.9411 LEARNED -0.3000
-3.9411 LEAST, -0.2915
-3.9411 LEGITIMATE -0.3010
-3.9411 LET'S -0.3008
-3.9411 LETTING -0.3007
-3.9411 LEVEL -0.3008
-3.9411 LEVELS -0.2977
-3.9411 LIFE -0.2884
-2.5261 LIKE -0.2771
-2.8997 LIKE, -0.2873
-3.9411 LIKE? -0.2884
-3.9411 LINK -0.2978
-3.6401 LINKS -0.2912
-3.9411 LIPS -0.3010
-3.9411 LITERALLY? -0.2884
-3.3391 LITTLE -0.3007
-3.4640 LOGO -0.2881
-3.6401 LONG -0.3001
-3.9411 LONG'S, -0.3005
-3.3391 LOOK -0.2987
-3.9411 LOOK, -0.2999
-3.3391 LOOKING -0.3001
-3.9411 LOOKS -0.2997
-3.2421 LOT -0.2971
-3.3391 LOVE -0.2899
-3.9411 LUNGS -0.2954
-3.9411 MADE -0.3006
-3.9411 MAINLY -0.2996
-3.6401 MAJOR -0.3009
-3.6401 MAKE -0.2980
-3.4640 MAKES -0.2959
-3.9411 MAMMAL -0.2884
-3.9411 MAMMALIAN -0.3008
-3.9411 MANIPULATE -0.3005
-3.2421 MANY -0.2998
-3.6401 MANY, -0.2942
-3.6401 MAP -0.2884
-3.4640 MAP, -0.2943
-3.9411 MAPS -0.3008
-3.9411 MAPS, -0.2983
-3.9411 MARKETERS -0.3006
-3.9411 MARKETING -0.2959
-3.9411 MASHABLE -0.3009
-3.1630 MASK -0.2701
-3.9411 MASKS -0.3010
-3.9411 MASKS, -0.2915
-3.9411 MASKS? -0.2884
-3.9411 MASSIVE -0.3009
-3.9411 MAY -0.2992
-3.1630 MAYBE -0.2824
-3.2421 ME -0.2831
-3.4640 ME, -0.2930
-3.0960 MEAN -0.2761
-2.8272 MEAN, -0.2854
-3.3391 MEETING -0.2818
-3.6401 MEMBRANES, -0.2899
-3.9411 MENTIONED, -0.3007
-3.9411 MERE -0.3007
-3.6401 MEXICO -0.2877
-3.1630 MEXICO, -0.2859
-3.9411 MIDDLE -0.3010
-3.4640 MIGHT -0.2997
-3.9411 MILITARY -0.3009
-3.6401 MILLION -0.2991
-3.9411 MINOR -0.3010
-3.9411 MISS -0.3010
-3.9411 MOCK -0.2915
-3.9411 MOCKS -0.2980
-3.9411 MODEL -0.3010
-2.8272 MORE -0.2961
-3.9411 MORNING -0.2959
-3.9411 MORONS -0.2884
-3.2421 MOST -0.2959
-3.9411 MOSTLY -0.3010
-3.9411 MOUTH, -0.2996
-3.9411 MOVING -0.2884
-3.4640 MR -0.2884
-3.3391 MUCH -0.3000
-3.6401 MUCOUS -0.3009
-3.9411 MULTIPLYING -0.3009
-3.6401 MUST -0.3000
-3.9411 MUTATION, -0.2954
-2.7950 MY -0.2997
-3.9411 NAME -0.2954
-3.6401 NECESSARILY -0.2963
-3.3391 NEED -0.2919
-3.9411 NERVOUS -0.3000
-3.9411 NET -0.2884
-3.9411 NEVER -0.3009
-3.3391 NEW -0.2956
-3.0960 NEWS -0.2786
-3.9411 NEXT -0.3008
-3.9411 NIGHT -0.2954
-2.9869 NO -0.2877
-3.0960 NO, -0.2927
-3.9411 NOBODY -0.3008
-3.6401 NOISE -0.2997
-3.9411 NORMAL -0.2884
-3.9411 NORMAL, -0.2973
-3.9411 NORTH -0.3010
-3.9411 NORTON -0.2884
-3.9411 NORTON, -0.3009
-3.9411 NOSE -0.3002
-2.6624 NOT -0.2706
-3.9411 NOTE -0.2977
-3.9411 NOTES -0.2959
-3.9411 NOTHING -0.2996
-3.9411 NOTICED -0.3009
-2.9869 NOW -0.2705
-3.9411 NOW, -0.2978
-3.9411 NOW? -0.2884
-3.6401 NUMBER -0.2977
-3.3391 NUMBERS -0.2923
-3.9411 NUMBERS, -0.3004
-3.6401 OBVIOUSLY -0.3007
-3.9411 OBVIOUSLY, -0.2956
-2.1216 OF -0.2713
-3.9411 OF, -0.2989
-3.9411 OF? -0.2884
-3.9411 OFF -0.2978
-3.9411 OFFICE -0.3010
-3.9411 OFFICIALS -0.2988
-3.9411 OFTEN -0.2978
-3.2421 OH -0.2994
-3.6401 OKAY, -0.2993
-3.6401 OKAY? -0.2884
-3.6401 OLD -0.2884
-3.9411 OLDER -0.3010
-3.9411 OLDS -0.3009
-2.4640 ON -0.2812
-3.6401 ON, -0.2991
-3.9411 ON? -0.2884
-2.7950 ONE -0.2758
-3.6401 ONE, -0.2923
-3.9411 ONES -0.2983
-3.9411 ONLINE -0.2884
-3.9411 ONTO -0.3004
-3.9411 OPPOSITE, -0.2997
-2.7107 OR -0.2835
-3.9411 OR, -0.2969
-3.9411 OR? -0.2884
-3.9411 ORDER -0.2996
-3.4640 ORGANIZATION -0.2971
-3.9411 ORIGINALLY -0.2980
-3.0380 OTHER -0.2969
-3.0960 OUR -0.3000
-3.1630 OUT -0.2823
-3.4640 OUT, -0.3001
-3.9411 OUTBREAK??? -0.2884
-3.4640 OUTBREAKS -0.2898
-3.6401 OUTSIDE -0.2963
-3.6401 OVER -0.3003
-3.9411 OVERREACTION -0.2977
-3.9411 PAL, -0.3010
-3.0380 PANDEMIC -0.2857
-3.4640 PANDEMIC, -0.2899
-3.9411 PANIC -0.2978
-3.3391 PARTICLES -0.2973
-3.6401 PARTICLES, -0.2951
-3.9411 PARTICULAR -0.3006
-3.9411 PARTLY -0.2973
-3.4640 PATRICK -0.2883
-3.9411 PATRICK, -0.2996
-3.9411 PAUSED, -0.2956
-3.9411 PC -0.2954
-3.6401 PEACE -0.2959
-2.4096 PEOPLE -0.2756
-3.9411 PEOPLE'S -0.3010
-2.9411 PEOPLE, -0.2853
-3.9411 PEOPLE? -0.2884
-3.9411 PEOPLES -0.2978
-3.4640 PERCENTAGE -0.2977
-3.9411 PERFECT -0.3009
-3.2421 PERSON -0.2769
-3.9411 PERSPECTIVE -0.3010
-3.6401 PHOTOGRAPHER -0.2883
-3.9411 PICKED -0.3009
-3.9411 PICTURES -0.2977
-3.6401 PLACE -0.2976
-3.9411 PLACES, -0.3010
-3.9411 PLAN -0.2954
-3.6401 PLANE -0.2932
-3.9411 PLANES -0.3000
-3.9411 PLATINUM -0.3010
-3.9411 PLAY -0.3010
-3.9411 PLEASED -0.2959
-3.9411 PLEASED, -0.3010
-3.4640 POINT -0.2875
-3.6401 POINT, -0.3006
-3.9411 POINTS -0.2995
-3.9411 POLLUTION -0.3009
-3.9411 POOR -0.3009
-3.4640 POPULATION -0.3002
-3.9411 POSITIVE -0.3010
-3.4640 POSSIBLE -0.2797
-3.9411 POSSIBLY -0.3010
-3.9411 POST -0.3007
-3.9411 POUNDS -0.2884
-3.9411 PRECAUTION, -0.3002
-3.6401 PRETTY -0.3009
-3.4640 PROBABLY -0.2998
-3.9411 PROBLEM -0.3002
-3.9411 PROOF -0.2969
-3.3391 PROTECT -0.3001
-3.6401 PROTECTION -0.2969
-3.9411 PROVIDED -0.3008
-3.9411 PUBLISHED -0.3006
-3.6401 PULSE -0.2977
-3.2421 PUT -0.2810
-3.9411 PUTS -0.3010
-3.9411 QUARTER -0.2977
-3.6401 QUESTION -0.2850
-3.9411 QUESTION? -0.2884
-3.9411 QUICK -0.3009
-3.9411 QUICK, -0.3004
-3.9411 QUICKLY -0.2884
-3.6401 QUITE -0.3007
-3.9411 RADIO -0.3004
-3.9411 RATE -0.2977
-3.9411 RATIO, -0.2954
-3.9411 REACTION -0.2959
-3.4640 READ -0.2996
-3.9411 READING, -0.2973
-3.9411 READY -0.2959
-3.9411 READY, -0.3007
-3.2421 REALLY -0.2866
-3.3391 REASON -0.2914
-3.9411 REASON, -0.2956
-3.9411 REASONS -0.2977
-3.9411 RECORD, -0.2954
-3.9411 RECORDS -0.3010
-3.9411 RED -0.3010
-3.9411 RELATED -0.2959
-3.9411 RELATED, -0.2992
-3.9411 RELATED? -0.2884
-3.9411 RELATIVE -0.2977
-3.9411 RELATIVES, -0.2956
-3.9411 REPLACEMENT -0.2884
-3.9411 REPORT -0.2969
-3.9411 REPORTED -0.3009
-3.9411 RESEARCH -0.2995
-3.9411 RESULT -0.2977
-3.6401 REVISION3 -0.2954
-3.0380 RIGHT -0.2879
-3.3391 RIGHT, -0.2913
-3.9411 RILEY, -0.2997
-3.6401 ROAD -0.2841
-3.9411 ROOM -0.2884
-3.9411 ROOM, -0.3003
-3.9411 ROOM? -0.3004
-3.4640 S -0.2884
-3.1630 SAID -0.2962
-3.9411 SAID, -0.2992
-3.6401 SAME -0.3003
-3.9411 SAME? -0.2884
-3.9411 SANFORD -0.2884
-3.9411 SANFORD) -0.2915
-3.9411 SARAH -0.3010
-3.9411 SAVERS, -0.3009
-3.9411 SAW -0.2980
-3.9411 SAY -0.2969
-3.4640 SAY, -0.2974
-3.9411 SAYING -0.2969
-3.6401 SAYING? -0.2884
-3.9411 SAYS -0.3006
-3.9411 SCALE -0.2915
-3.6401 SCAM -0.3008
-3.9411 SCARIER -0.3008
-3.4640 SCARY -0.2820
-3.4640 SCHOOL -0.2952
-3.6401 SCHOOL, -0.2999
-3.4640 SCHOOLS -0.2955
-3.9411 SCREEN -0.3010
-3.9411 SEARCH -0.3009
-3.9411 SEARCHES -0.2995
-3.9411 SECURITY -0.2954
-2.9869 SEE -0.2840
-3.6401 SEEING -0.2978
-3.9411 SEEMS -0.3005
-3.9411 SEEN -0.2973
-3.9411 SELF -0.2884
-3.9411 SELLING -0.3005
-3.6401 SENSE -0.2925
-3.9411 SENTENCE -0.3010
-3.9411 SEOUL -0.2884
-3.4640 SERIOUSLY -0.2846
-3.9411 SEVERAL -0.3009
-3.9411 SHAPE -0.3005
-3.0960 SHE -0.2967
-3.4640 SHE'S -0.3002
-3.9411 SHOCKED -0.2978
-3.3391 SHOULD -0.3005
-3.1630 SHOW -0.2946
-3.9411 SHOW, -0.3007
-3.9411 SHOWING -0.3006
-3.9411 SHUT -0.3009
-3.6401 SHUTTING -0.3009
-3.9411 SHWOOD -0.2884
-3.2421 SICK -0.2765
-3.9411 SICK, -0.2992
-3.9411 SIDE -0.3009
-3.9411 SIDEWAYS -0.3010
-3.9411 SIGN -0.3006
-3.6401 SIGNAL -0.2902
-3.9411 SILLY -0.3002
-3.9411 SIT -0.2978
-3.9411 SKYPE, -0.3009
-3.9411 SKYPEBOX -0.3009
-3.6401 SLAPPED -0.2980
-3.9411 SLEEP -0.2884
-3.9411 SMART -0.3008
-3.9411 SNEAK -0.3010
-3.9411 SNEEZE -0.3002
-3.9411 SNEEZING, -0.2954
-2.5261 SO -0.2676
-3.3391 SO, -0.2885
-3.6401 SO? -0.2884
-3.6401 SOLDIERS -0.2971
-3.9411 SOLDIERS, -0.3010
-3.0960 SOME -0.2945
-3.9411 SOME, -0.3010
-3.4640 SOMEBODY -0.2945
-3.9411 SOMEHOW -0.2884
-2.8997 SOMETHING -0.2905
-3.9411 SOMETHING, -0.3000
-3.9411 SOMETIMES -0.3006
-3.6401 SOMEWHERE -0.2978
-3.9411 SOPHISTICATED -0.2978
-3.9411 SORRY -0.2884
-3.9411 SORT -0.2977
-3.9411 SOURCES -0.2971
-3.9411 SPEAK -0.3010
-3.4640 SPEAKER -0.2962
-3.9411 SPECIAL -0.3010
-3.9411 SPECIALIST -0.2978
-3.9411 SPECIES -0.3009
-3.9411 SPECIFICALLY -0.3010
-3.9411 SPEND -0.2997
-3.6401 SPREAD -0.2991
-3.9411 SPREADING -0.2959
-3.9411 STARING -0.3009
-3.3391 START -0.3007
-3.9411 STARTED -0.2978
-3.4640 STARTING -0.2957
-3.9411 STATES -0.3004
-3.6401 STATES, -0.2996
-3.6401 STATISTICS -0.2981
-3.9411 STILL -0.3009
-3.9411 STOP -0.3009
-3.9411 STORIES -0.2884
-3.9411 STORM -0.3010
-3.9411 STORM, -0.3006
-3.1630 STORY -0.2875
-3.9411 STORY, -0.2915
-3.9411 STRIKING -0.3009
-3.9411 STUDY, -0.3004
-3.6401 STUFF -0.2881
-3.6401 STUFF, -0.2926
-3.9411 SUB-TYPE, -0.2992
-3.9411 SUB-TYPES -0.2969
-3.9411 SURE -0.3009
-3.9411 SURGERIES -0.2973
-3.6401 SURGICAL -0.3007
-3.6401 SURVIVE -0.2853
-3.9411 SURVIVED -0.2978
-3.0380 SWINE -0.2991
-3.9411 SWITCH -0.2959
-3.4640 SYSTEM -0.2930
-3.9411 SYSTEMS -0.2884
-3.9411 TAIL -0.3009
-3.4640 TAKE -0.2978
-3.9411 TAKEN -0.3010
-3.9411 TAKES -0.3007
-3.4640 TAKING -0.2983
-3.4640 TALK -0.3000
-3.2421 TALKING -0.2948
-3.9411 TEASE, -0.2997
-3.4640 TECH -0.2972
-3.9411 TECH, -0.3010
-3.9411 TECHNOLOGICAL -0.2954
-3.6401 TECHNOLOGY -0.2999
-3.9411 TECHZILLA -0.3007
-3.9411 TEND -0.2959
-3.6401 TERMS -0.2955
-3.9411 TEXAS -0.3006
-3.4640 TEXT -0.3002
-3.2421 THAN -0.2900
-3.6401 THANK -0.2983
-2.0220 THAT -0.2329
-2.5432 THAT'S -0.2793
-3.6401 THAT, -0.2983
-3.9411 THAT? -0.2884
-1.6647 THE -0.2814
-3.6401 THE? -0.2884
-3.9411 THEIR -0.3010
-3.0960 THEM -0.2897
-3.9411 THEM, -0.2997
-3.6401 THEMSELVES -0.2987
-3.0380 THEN -0.2851
-3.9411 THEORIES -0.2884
-3.9411 THEORIES, -0.3010
-2.5987 THERE -0.2748
-3.2421 THERE'S -0.2961
-3.9411 THEREFORE -0.3003
-2.9411 THESE -0.2990
-2.5097 THEY -0.2923
-3.4640 THEY'RE -0.3007
-3.9411 THEY'VE -0.3010
-3.0960 THING -0.2888
-3.9411 THING, -0.3010
-3.1630 THINGS -0.2986
-3.9411 THINGS, -0.3000
-2.9411 THINK -0.2920
-3.9411 THINK, -0.3008
-3.9411 THINKING?? -0.2884
-3.9411 THIRTY-DAY -0.3010
-2.3179 THIS -0.2728
-3.6401 THIS, -0.2953
-3.6401 THIS? -0.2846
-2.8997 THOSE -0.2939
-3.9411 THOUGH -0.3006
-3.9411 THOUGHT, -0.3006
-3.9411 THREE -0.2977
-3.9411 THREE, -0.2997
-3.9411 THRILLED -0.3000
-3.9411 THROUGH -0.3008
-3.9411 THROUGH? -0.2884
-3.9411 THROW -0.3004
-3.9411 THURSDAY -0.2954
-3.9411 TIGHT -0.3008
-3.0960 TIME -0.2896
-3.2421 TIME, -0.2858
-3.9411 TINY -0.3010
-3.9411 TISSUES -0.2978
-1.9283 TO -0.2417
-3.4640 TO, -0.2999
-3.9411 TO? -0.2884
-3.3391 TODAY -0.2836
-3.9411 TODAY? -0.2884
-3.9411 TODDLER -0.3010
-3.9411 TODDLER, -0.2992
-3.9411 TOO -0.3008
-3.9411 TRACKING -0.2989
-3.9411 TRAFFIC -0.3009
-3.9411 TRAFFIC, -0.3009
-3.9411 TRANSLATING -0.2996
-3.9411 TRANSLATOR -0.3007
-3.6401 TRAVEL -0.2954
-3.9411 TRAVEL? -0.2884
-3.9411 TRAVELLED -0.3010
-3.9411 TRIAL, -0.3010
-3.9411 TROOPER -0.3002
-3.9411 TRUE -0.2996
-3.6401 TRY -0.2958
-3.9411 TRYING -0.2959
-3.9411 TUBE, -0.2997
-3.9411 TUNE -0.2978
-3.6401 TWIT -0.3007
-3.9411 TWIT, -0.2915
-3.9411 TWIT; -0.2989
-3.1630 TWITTER -0.2784
-3.9411 TWITTER, -0.3010
-3.2421 TWO -0.2996
-3.9411 TWO, -0.3009
-3.9411 TYPICAL -0.3009
-3.4640 U -0.2884
-3.9411 UH-HUH -0.2884
-3.9411 UH-HUH, -0.3010
-3.9411 UNCHAIN -0.3009
-3.9411 UNDER -0.3009
-3.9411 UNDERSTAND -0.2996
-3.9411 UNDERSTANDING -0.2969
-3.4640 UNITED -0.3009
-3.4640 UNKNOWN -0.3009
-2.9869 UP -0.2727
-3.6401 UP, -0.2957
-3.2421 US -0.2948
-3.9411 USE -0.2915
-3.4640 USEFUL -0.2875
-3.9411 USER -0.3010
-3.9411 VACCINES -0.2884
-3.9411 VARY -0.3010
-2.8619 VERY -0.2999
-3.9411 VIA -0.3010
-3.6401 VIRAL -0.3007
-3.9411 VIRAL, -0.3001
-3.9411 VIRUSES -0.3007
-3.9411 VISIT -0.3009
-3.0380 WANT -0.2762
-3.6401 WAR -0.2956
-2.4787 WAS -0.2651
-3.9411 WAS, -0.2973
-3.9411 WASH -0.3004
-3.9411 WASHED -0.3003
-3.9411 WASN'T -0.3010
-3.9411 WASN'T, -0.2998
-3.9411 WASTE -0.3003
-3.9411 WATCH -0.3010
-3.9411 WATCHING, -0.2999
-3.3391 WAY -0.2910
-3.9411 WAYS -0.2884
-2.5261 WE -0.2915
-3.1630 WE'RE -0.2992
-3.9411 WEAKENED -0.3008
-3.3391 WEAR -0.2956
-3.2421 WEARING -0.2930
-3.9411 WEDNESDAY -0.3002
-3.3391 WEEK -0.2945
-3.9411 WEEKS -0.2884
-3.3391 WELL -0.2897
-3.3391 WELL, -0.2932
-3.3391 WERE -0.3002
-2.4940 WHAT -0.2674
-3.6401 WHAT'S -0.3006
-3.4640 WHATEVER -0.2786
-3.2421 WHEN -0.2932
-3.9411 WHEN, -0.2992
-3.2421 WHERE -0.2863
-3.9411 WHERE, -0.2956
-3.9411 WHETHER -0.3002
-3.2421 WHICH -0.2970
-2.7950 WHO -0.2939
-3.9411 WHOO, -0.3010
-3.6401 WHY -0.2967
-3.9411 WIFE -0.3009
-3.9411 WIFE'S -0.3007
-3.0960 WILL -0.2987
-3.9411 WILLIAMS -0.2978
-3.9411 WIN -0.3009
-3.9411 WINE, -0.2997
-3.9411 WIPE -0.3004
-3.6401 WISH -0.2841
-2.7370 WITH -0.2686
-3.6401 WITHIN -0.2875
-3.9411 WITHOUT -0.3009
-3.9411 WONDER -0.3010
-3.9411 WONDER, -0.3008
-3.9411 WORD -0.2884
-3.6401 WORE -0.2908
-3.9411 WORKED -0.3010
-3.9411 WORKING -0.2995
-3.9411 WORKS -0.3007
-3.1630 WORLD -0.2972
-3.9411 WORRIED -0.3000
-3.9411 WORRY -0.3000
-3.3391 WOULD -0.2978
-3.6401 WOULDN'T -0.2984
-3.9411 WOW -0.2993
-3.9411 WOW, -0.2998
-3.9411 WRONG -0.3010
-3.2421 YEAH -0.2813
-3.0380 YEAH, -0.2811
-3.9411 YEAH? -0.2884
-3.6401 YEAR -0.2972
-3.9411 YEARLY -0.3008
-3.9411 YEARS -0.3010
-3.6401 YEARS, -0.2972
-3.4640 YES -0.2884
-2.7107 YES, -0.2628
-3.9411 YES? -0.2884
-3.4640 YET -0.2883
-3.9411 YET, -0.3009
-3.9411 YORK -0.3010
-2.2087 YOU -0.2682
-3.0380 YOU'RE -0.2994
-3.9411 YOU'RE? -0.2884
-3.6401 YOU'VE -0.3008
-3.9411 YOU? -0.2884
-3.6401 YOUNG -0.3000
-3.6401 YOUNGER -0.2867
-2.8619 YOUR -0.3003
-3.4640 YOURSELF -0.2837
-3.9411 ZEALAND, -0.3007
-3.9411 [INDISCERNIBLE], -0.2956

\2-grams:
-0.3010 (KIRSTEN SANFORD) 0.0000
-0.3010 - THAT'S -0.2923
-1.3424 -- </s> -0.3010
-1.3424 -- ACTUALLY -0.2632
-1.3424 -- I'M -0.2304
-1.3424 -- IN -0.2977
-1.3424 -- INTO -0.2553
-1.3424 -- PEOPLE -0.2946
-1.3424 -- THAT -0.2850
-0.8653 -- WE -0.2663
-1.3424 -- YOU -0.2970
-0.3010 10 MILLION -0.1761
-0.3010 100 MILLION -0.1761
-0.3010 12 AND -0.2991
-0.3010 120 ARE -0.2813
-0.6021 13 AND -0.2991
-0.6021 13 WEEKS 0.0000
-0.3010 14 YEAR -0.1761
-0.6021 1918 PANDEMIC -0.2730
-0.6021 1918 PANDEMIC, -0.2218
-0.3010 1918, THERE -0.2139
-0.3010 192 FOR -0.2932
-0.3010 2 TO -0.2968
-0.7782 20 ? -0.2926
-0.4771 20 PEOPLE -0.2679
-0.3010 20% OF -0.2335
-0.3010 2009, KIPPLE 0.0000
-0.3010 20TH CENTURY 0.0000
-0.3010 24 HOUR -0.1761
-0.3010 25, 20% 0.0000
-0.3010 26, 2009, 0.0000
-0.3010 365, SO -0.2926
-0.6021 40 DIDN'T 0.0000
-0.6021 40 SOME -0.2688
-0.3010 44,000 TRAFFIC 0.0000
-0.3010 5 TO -0.2989
-0.3010 5% OF -0.2335
-0.3010 5'O CLOCK 0.0000
-0.3010 50 AND -0.2991
-0.3010 800 PEOPLE? 0.0000
-0.7782 86 </s> -0.3010
-0.7782 86 ACTUALLY, 0.0000
-0.7782 86 PEOPLE -0.2679
-0.6021 86, IS -0.2923
-0.6021 86, OKAY? 0.0000
-2.6990 <s> 86 -0.2218
-2.3979 <s> 86, 0.0000
-2.6990 <s> ? -0.2926
-2.6990 <s> ?? 0.0000
-2.6990 <s> ??AND 0.0000
-2.6990 <s> ?FROM 0.0000
-2.6990 <s> A -0.2869
-2.6990 <s> ADAM -0.1761
-2.6990 <s> ALL -0.2341
-2.6990 <s> ALSO -0.2430
-2.6990 <s> ALSO, 0.0000
-2.6990 <s> ALWAYS -0.1761
-1.4685 <s> AND -0.1875
-2.6990 <s> BANDWIDTH 0.0000
-2.6990 <s> BECAUSE -0.2672
-2.6990 <s> BRIAN -0.1761
-1.7447 <s> BUT -0.1711
-2.6990 <s> CALL -0.0969
-2.6990 <s> CATHERINE -0.2218
-2.3979 <s> COM 0.0000
-2.6990 <s> COM/PODCASTING 0.0000
-2.6990 <s> COM/TWIT 0.0000
-2.6990 <s> COM/TWIT2 0.0000
-2.3979 <s> COULD -0.2341
-2.6990 <s> DIVIDED 0.0000
-2.0969 <s> DO -0.2041
-2.6990 <s> DR 0.0000
-2.6990 <s> EVERYTHING 0.0000
-2.6990 <s> FOR -0.2932
-2.6990 <s> FRESH 0.0000
-2.6990 <s> FROM -0.2881
-2.6990 <s> GO -0.1249
-2.6990 <s> GOOD -0.2688
-2.3979 <s> GREAT -0.1761
-2.6990 <s> HELLO, 0.0000
-2.6990 <s> HOW -0.2730
-2.3979 <s> HOWDY 0.0000
-1.2840 <s> I -0.1339
-2.2218 <s> IF -0.1938
-2.6990 <s> IMPORTANT 0.0000
-2.6990 <s> IN -0.2909
-2.6990 <s> INFOWARS 0.0000
-2.3979 <s> IT -0.2711
-1.6576 <s> IT'S -0.2027
-2.3979 <s> JASON 0.0000
-2.6990 <s> JASON, -0.1761
-2.6990 <s> JUST -0.2872
-2.6990 <s> KIKI 0.0000
-2.6990 <s> KIKI, 0.0000
-2.6990 <s> LIKE -0.2752
-2.6990 <s> LITERALLY? 0.0000
-2.6990 <s> MAYBE -0.2632
-2.6990 <s> NET 0.0000
-2.2218 <s> NO -0.2218
-2.0969 <s> NO, -0.1091
-2.6990 <s> NOT -0.2775
-2.6990 <s> NOTHING 0.0000
-2.6990 <s> OBVIOUSLY, 0.0000
-2.2218 <s> OH -0.1461
-2.6990 <s> ON -0.2788
-2.6990 <s> ONE -0.2156
-2.6990 <s> OR -0.2747
-2.6990 <s> ORIGINALLY 0.0000
-2.6990 <s> OUR -0.2688
-2.6990 <s> PATRICK -0.2218
-2.6990 <s> PEACE 0.0000
-2.3979 <s> PEOPLE -0.2467
-2.6990 <s> POOR 0.0000
-2.6990 <s> POPULATION -0.2218
-2.6990 <s> PROBABLY -0.2218
-2.6990 <s> QUICK 0.0000
-2.6990 <s> QUICK, 0.0000
-2.2218 <s> RIGHT -0.0969
-2.3979 <s> RIGHT, -0.1761
-2.2218 <s> S 0.0000
-2.6990 <s> SARAH 0.0000
-2.6990 <s> SCAM -0.1761
-2.2218 <s> SHE -0.1963
-2.6990 <s> SIGN 0.0000
-2.3979 <s> SLAPPED 0.0000
-2.0969 <s> SO -0.2382
-2.2218 <s> SO, -0.0969
-2.3979 <s> SOME -0.1549
-2.6990 <s> STARTING -0.2218
-2.3979 <s> THANK 0.0000
-2.6990 <s> THAT -0.2850
-2.0969 <s> THAT'S -0.2355
-2.3979 <s> THE -0.2987
-2.3979 <s> THERE -0.1347
-2.0000 <s> THEY -0.2021
-1.9208 <s> THIS -0.2218
-2.6990 <s> THOSE -0.2808
-2.6990 <s> TO -0.2968
-2.6990 <s> TOO 0.0000
-2.6990 <s> UH-HUH 0.0000
-2.6990 <s> UH-HUH, 0.0000
-2.2218 <s> UNKNOWN 0.0000
-2.6990 <s> VERY -0.2825
-2.6990 <s> WE -0.2752
-2.3979 <s> WELL -0.1761
-2.2218 <s> WELL, -0.0969
-2.0969 <s> WHAT -0.1963
-2.6990 <s> WHATEVER -0.1249
-2.2218 <s> YEAH 0.0000
-2.0000 <s> YEAH, -0.1383
-2.3979 <s> YES 0.0000
-1.5528 <s> YES, -0.0483
-1.9208 <s> YOU -0.2499
-2.6990 <s> YOU'VE 0.0000
-1.7160 ? 86 -0.2218
-1.7160 ? </s> -0.3010
-1.7160 ? AEROSOLIZED -0.1761
-1.4150 ? AND -0.2773
-1.7160 ? BUT -0.2935
-1.7160 ? EPIDEMIOLOGISTS -0.1761
-1.7160 ? GOD, 0.0000
-1.7160 ? HAVE -0.2888
-1.2389 ? I -0.2654
-1.7160 ? IF -0.2872
-1.7160 ? IS -0.2981
-1.4150 ? IT -0.2632
-1.7160 ? MY -0.2852
-1.7160 ? NOT -0.2894
-1.7160 ? OF -0.2944
-1.7160 ? SOMEBODY -0.2218
-1.7160 ? THAT -0.2850
-1.7160 ? THE -0.2999
-1.7160 ? WHICH -0.1461
-1.2389 ? YOU -0.2588
-0.3010 ?? </s> -0.3010
-0.3010 ??? </s> -0.3010
-0.3010 ??AND THERE'S -0.1461
-0.3010 ?FROM SHWOOD 0.0000
-2.1931 A 24 0.0000
-2.1931 A ? -0.2752
-2.1931 A BIGGER 0.0000
-2.1931 A BIRD -0.2218
-2.1931 A BOOM 0.0000
-2.1931 A BUST? 0.0000
-2.1931 A CERTAIN 0.0000
-2.1931 A CHEAP -0.1761
-2.1931 A CONSPIRACY, 0.0000
-2.1931 A CYTOKINE 0.0000
-2.1931 A DAILY 0.0000
-2.1931 A DEATH 0.0000
-2.1931 A DEGREE 0.0000
-2.1931 A DESKTOP 0.0000
-2.1931 A DEVELOPING 0.0000
-2.1931 A DOCTOR 0.0000
-2.1931 A DOLLAR 0.0000
-2.1931 A DOMAIN 0.0000
-2.1931 A FALSE 0.0000
-2.1931 A FEW 0.0000
-1.7160 A FLU -0.2467
-2.1931 A GAMING 0.0000
-2.1931 A GATEWAY, 0.0000
-2.1931 A GEEK, 0.0000
-1.8921 A GOOD -0.2341
-2.1931 A GREAT -0.2632
-2.1931 A HALF, 0.0000
-2.1931 A HOSPITAL, 0.0000
-2.1931 A JOB, 0.0000
-2.1931 A LEGITIMATE 0.0000
-2.1931 A LINK 0.0000
-1.7160 A LITTLE -0.0969
-1.4942 A LOT 0.0000
-2.1931 A MAJOR -0.1761
-2.1931 A MAMMAL 0.0000
-2.1931 A MAMMALIAN 0.0000
-2.1931 A MASHABLE 0.0000
-1.5911 A MASK -0.1249
-2.1931 A MASSIVE 0.0000
-2.1931 A MEETING -0.2430
-2.1931 A MINOR 0.0000
-1.8921 A PANDEMIC -0.2109
-2.1931 A PANDEMIC, -0.1249
-2.1931 A PERSON -0.2041
-2.1931 A PLANE -0.1761
-2.1931 A QUARTER 0.0000
-2.1931 A QUESTION -0.1761
-1.8921 A REASON -0.1761
-2.1931 A REPORT 0.0000
-2.1931 A RESULT 0.0000
-1.8921 A SCHOOL -0.1249
-2.1931 A SCHOOL, -0.1761
-2.1931 A SIDEWAYS 0.0000
-2.1931 A SNEAK 0.0000
-2.1931 A SPECIAL 0.0000
-2.1931 A SPECIALIST 0.0000
-2.1931 A STARING 0.0000
-2.1931 A STARTING -0.2218
-2.1931 A STORM 0.0000
-2.1931 A SURGICAL -0.1761
-2.1931 A TODDLER, 0.0000
-2.1931 A TYPICAL 0.0000
-2.1931 A VERY -0.2825
-0.3010 ABILITY TO -0.2794
-0.3010 ABLE TO -0.2925
-1.6232 ABOUT -- -0.2808
-1.6232 ABOUT 5 0.0000
-1.3222 ABOUT </s> -0.3010
-1.6232 ABOUT AND -0.2834
-1.1461 ABOUT IT -0.2512
-1.6232 ABOUT THAT -0.2931
-0.7202 ABOUT THE -0.2810
-1.6232 ABOUT THE? 0.0000
-1.3222 ABOUT THIS -0.2852
-1.6232 ABOUT THOSE -0.2808
-0.3010 ABOUT, BECAUSE -0.2900
-0.3010 ABSOLUTELY, IF -0.2872
-0.3010 ACCESS IT -0.2974
-0.3010 ACCIDENTS IN -0.2402
-0.3010 ACCORDING TO? 0.0000
-0.6021 ACROSS -- -0.2808
-0.6021 ACROSS THE -0.2964
-0.3010 ACTUAL FLU -0.2881
-1.0792 ACTUALLY A -0.2954
-1.0792 ACTUALLY BEING -0.2218
-1.0792 ACTUALLY DIED, 0.0000
-1.0792 ACTUALLY MAKES -0.2218
-1.0792 ACTUALLY WAS -0.2935
-1.0792 ACTUALLY WORE -0.1761
-0.3010 ACTUALLY, ACCORDING 0.0000
-0.6021 ADAM CURRY 0.0000
-0.6021 ADAM HAS -0.2430
-0.6021 AEROSOLIZED LITTLE -0.2430
-0.6021 AEROSOLIZED PARTICLES -0.2430
-0.3010 AFFECTED YOUNG -0.1761
-0.3010 AGE, WITH -0.2872
-0.3010 AGENCIES ARE -0.2962
-0.3010 AGENDA THIS -0.2958
-0.3010 AGO AND -0.2991
-1.0000 AIR AND -0.2834
-1.0000 AIR BORNE 0.0000
-1.0000 AIR PARTICLES -0.2430
-1.0000 AIR TRAVEL 0.0000
-1.0000 AIR TRAVEL? 0.0000
-0.7782 AIRBORNE PARTICLES, -0.1761
-0.4771 AIRBORNE THAN -0.2041
-0.3010 AIRPORTS AND -0.2991
-1.4472 ALL ABOUT -0.2798
-1.4472 ALL MY -0.2852
-0.9700 ALL OF -0.2218
-1.4472 ALL ONE -0.2852
-1.4472 ALL THAT -0.2984
-0.8451 ALL THE -0.2952
-1.1461 ALL THINGS -0.2218
-1.4472 ALL THIS -0.2906
-0.3010 ALONE WILL -0.1963
-0.7782 ALREADY CREATED 0.0000
-0.7782 ALREADY HAVE -0.2950
-0.7782 ALREADY PUBLISHED 0.0000
-1.2041 ALSO ? -0.2926
-0.9031 ALSO A -0.2954
-1.2041 ALSO FROM -0.2881
-0.9031 ALSO HERE, -0.2041
-1.2041 ALSO JUST -0.2872
-1.2041 ALSO THE -0.2987
-0.3010 ALSO, WITH -0.2730
-0.6021 ALWAYS IN -0.2402
-0.6021 ALWAYS SHOCKED 0.0000
-1.3424 AM GOING -0.0792
-1.3424 AM HAVING -0.1761
-1.3424 AM NOT -0.2894
-1.3424 AM READING, 0.0000
-1.3424 AM SAYING? 0.0000
-1.0414 AM SEEING 0.0000
-1.3424 AM THRILLED 0.0000
-1.3424 AM TRYING 0.0000
-1.3424 AM VERY -0.2825
-1.3424 AM WATCHING, 0.0000
-0.3010 AMAZING WHAT -0.2932
-0.3010 AMERICA, THEN -0.2730
-0.3010 AMONG PEOPLE -0.2609
-1.2041 AN ARMY 0.0000
-0.9031 AN ARTICLE 0.0000
-0.9031 AN HOUR -0.1761
-1.2041 AN INTERESTING -0.2553
-1.2041 AN ORGANIZATION -0.2218
-1.2041 AN OVERREACTION 0.0000
-2.3541 AND 100 0.0000
-2.3541 AND 13 -0.1761
-2.3541 AND 14 0.0000
-2.3541 AND A -0.2982
-2.3541 AND ACCESS 0.0000
-2.3541 AND ACROSS -0.1761
-2.3541 AND AGE, 0.0000
-2.3541 AND AIR -0.2553
-2.3541 AND ALL -0.2852
-2.3541 AND BITS -0.1761
-2.3541 AND BY -0.2430
-2.3541 AND COMMUNICATION 0.0000
-2.3541 AND CRAZINESS 0.0000
-2.3541 AND DYING -0.2430
-2.3541 AND EVEN -0.2553
-2.3541 AND EVERY 0.0000
-2.3541 AND FINALLY, 0.0000
-2.3541 AND FOLLOW -0.2218
-2.3541 AND FOR -0.2518
-2.0531 AND GENTLEMEN, 0.0000
-2.3541 AND GET -0.2840
-2.3541 AND GO -0.1249
-2.3541 AND HALF -0.2218
-2.3541 AND HEALTHIER 0.0000
-2.3541 AND HOW -0.2730
-1.3541 AND I -0.2218
-1.8770 AND I'M -0.2304
-2.3541 AND I'VE 0.0000
-2.3541 AND IGNORE 0.0000
-1.8770 AND IN -0.2875
-2.3541 AND IT -0.2711
-1.8770 AND IT'S -0.2831
-2.3541 AND JUST -0.2872
-2.3541 AND MOST -0.2553
-2.3541 AND MY -0.2852
-2.3541 AND NOW -0.2499
-2.0531 AND OBVIOUSLY 0.0000
-2.0531 AND OTHER -0.2430
-2.3541 AND OUR -0.2688
-2.3541 AND PAL, 0.0000
-2.3541 AND PEOPLE -0.2946
-2.3541 AND PEOPLE, -0.2788
-2.3541 AND PHOTOGRAPHER -0.1761
-2.3541 AND SHE'S -0.2218
-1.3999 AND SO -0.1978
-2.3541 AND SO, -0.2430
-2.3541 AND SOMETHING -0.2808
-2.3541 AND START -0.2430
-2.3541 AND TECHNOLOGY -0.1761
-1.8770 AND THAT -0.2599
-1.5090 AND THAT'S -0.2148
-1.2749 AND THE -0.2701
-1.8770 AND THEN -0.2109
-2.0531 AND THERE -0.2139
-2.3541 AND THERE'S -0.1461
-2.0531 AND THESE -0.2041
-2.3541 AND TWITTER -0.2632
-2.3541 AND WE -0.2752
-2.0531 AND WHAT -0.2852
-2.3541 AND WHAT'S -0.1761
-2.3541 AND WHEN -0.2553
-2.3541 AND YOU -0.2888
-2.3541 AND YOU'VE 0.0000
-0.3010 AND? </s> -0.3010
-0.3010 ANGLE, I -0.2846
-0.9031 ANOTHER ONE -0.2156
-0.9031 ANOTHER PANDEMIC, -0.1249
-0.9031 ANOTHER THING -0.2688
-0.9031 ANOTHER THING, 0.0000
-0.6021 ANY DIGITAL 0.0000
-0.6021 ANY NUMBERS -0.2430
-0.6021 ANYTHING </s> -0.3010
-0.6021 ANYTHING TO -0.2968
-0.3010 ANYWHERE WITH -0.2872
-0.6021 AOL </s> -0.3010
-0.6021 AOL RADIO 0.0000
-0.3010 APPLE, I -0.2888
-0.3010 APRIL 26, 0.0000
-1.9542 ARE </s> -0.3010
-1.9542 ARE AND -0.2972
-1.9542 ARE CLEANER 0.0000
-1.9542 ARE CLICKING 0.0000
-1.9542 ARE CROWDED, 0.0000
-1.4771 ARE DYING -0.0969
-1.3522 ARE GOING -0.0792
-1.9542 ARE GRABBING 0.0000
-1.9542 ARE IMMUNE -0.2430
-1.9542 ARE IN -0.2875
-1.9542 ARE INCREDIBLY -0.1761
-1.9542 ARE LETTING 0.0000
-1.9542 ARE LIKE -0.2840
-1.6532 ARE LIKE, -0.2596
-1.9542 ARE MARKETING 0.0000
-1.9542 ARE MORE -0.2840
-1.6532 ARE NO -0.2499
-1.9542 ARE NOT -0.2894
-1.9542 ARE NUMBER -0.1761
-1.9542 ARE OKAY? 0.0000
-1.9542 ARE PROBABLY -0.2218
-1.9542 ARE RIGHT, -0.2430
-1.6532 ARE SHUTTING 0.0000
-1.6532 ARE SICK -0.2041
-1.9542 ARE SICK, 0.0000
-1.9542 ARE SMART 0.0000
-1.6532 ARE TALKING -0.2041
-1.9542 ARE THOSE -0.2808
-1.9542 ARE VERY -0.2632
-1.6532 ARE WE -0.2840
-1.9542 ARE WORKING 0.0000
-1.6532 ARE YOU -0.2929
-1.9542 ARE YOUNGER -0.1761
-0.6021 ARE, BECAUSE -0.2788
-0.6021 ARE, I -0.2970
-0.3010 AREAS NEED -0.0969
-0.3010 AREN'T TIGHT 0.0000
-0.3010 ARMIES ARE -0.2962
-0.3010 ARMY THAT -0.2850
-0.3010 ARMY, I -0.2990
-0.7782 AROUND EVERYWHERE 0.0000
-0.7782 AROUND PEOPLE, -0.2788
-0.7782 AROUND THE -0.2964
-0.7782 ARTICLE SAYING? 0.0000
-0.4771 ARTICLE THAT -0.2958
-1.1139 AS A -0.2954
-1.4150 AS ANY -0.1761
-1.4150 AS EARLY -0.1761
-1.4150 AS FIVE -0.1761
-1.4150 AS I -0.2909
-1.4150 AS LONG -0.1761
-1.4150 AS OTHER -0.2730
-1.4150 AS THE -0.2952
-1.4150 AS THEY -0.2929
-1.4150 AS WE -0.2926
-1.4150 AS WELL -0.2430
-1.4150 AS YOU -0.2970
-0.6021 ASIA, THE -0.2999
-0.6021 ASIA, YEAH -0.1461
-0.3010 ASPECT OF -0.2843
-0.3010 ASSUME WE'RE -0.2632
-1.3802 AT AOL -0.1761
-1.3802 AT CATHERINEHALL 0.0000
-1.3802 AT IS -0.2742
-1.3802 AT IT -0.2900
-1.3802 AT LONG'S, 0.0000
-1.3802 AT ONE -0.2852
-0.6812 AT THE -0.2894
-1.3802 AT THIS -0.2958
-0.3010 ATTACK, SOMEBODY -0.2218
-0.4771 AUDIBLE </s> -0.3010
-0.7782 AUDIBLE ON -0.2937
-0.3010 AUDIBLE_COM; AND -0.2991
-0.3010 AVERAGE PERSON -0.2553
-0.6021 AVIAN FLU -0.2609
-0.6021 AVIAN FLU, -0.2553
-0.3010 BABIES AND -0.2991
-0.4771 BACK FROM -0.2747
-0.7782 BACK ON, -0.1761
-0.3010 BACKWARDS? </s> -0.3010
-0.3010 BACTERIAL ? -0.2926
-0.3010 BACTERIAL, BUT -0.2700
-0.3010 BAD NEWS -0.1963
-0.3010 BANDWIDTH FOR -0.2932
-0.6021 BAR BETS, 0.0000
-0.6021 BAR ON -0.2863
-0.3010 BASIS NOW -0.1919
-0.3010 BATTLESHIP </s> -0.3010
-0.3010 BATTLESHIP? </s> -0.3010
-1.6232 BE A -0.2954
-1.6232 BE ABLE 0.0000
-1.6232 BE ANOTHER -0.2430
-1.6232 BE CONCERNED -0.1249
-1.6232 BE DANGEROUS -0.1461
-1.6232 BE ENOUGH -0.0792
-1.6232 BE FUNDED, 0.0000
-1.6232 BE HONEST 0.0000
-1.6232 BE INTERNATIONAL -0.1761
-1.6232 BE OUT -0.2632
-1.6232 BE SICK -0.2553
-1.6232 BE SNEEZING, 0.0000
-1.6232 BE SPECIFICALLY 0.0000
-1.6232 BE THAT, -0.1761
-1.1461 BE THE -0.2964
-1.6232 BE THESE -0.2553
-1.6232 BE TRUE 0.0000
-1.6232 BE WITH -0.2730
-1.6232 BE YOUNGER -0.1761
-1.6021 BECAUSE 20 -0.1249
-1.6021 BECAUSE EVERYBODY'S 0.0000
-1.0000 BECAUSE I -0.2825
-1.6021 BECAUSE IT -0.2974
-1.3010 BECAUSE OF -0.2258
-1.6021 BECAUSE THAT'S -0.2923
-1.1249 BECAUSE THE -0.2952
-1.1249 BECAUSE THEY -0.2218
-1.6021 BECAUSE THIS -0.2576
-1.3010 BECAUSE WE -0.2752
-1.6021 BECAUSE YOU'RE -0.2730
-0.4771 BECOME A -0.2926
-0.7782 BECOME CONTAGIOUS 0.0000
-0.3010 BECOMES DANGEROUS -0.2553
-1.1461 BEEN EXPOSED 0.0000
-1.1461 BEEN LIKE -0.2926
-0.8451 BEEN LOOKING 0.0000
-1.1461 BEEN THAT -0.2984
-1.1461 BEEN VERY -0.2632
-1.1461 BEEN WEARING -0.2553
-0.3010 BEES BUT -0.2780
-0.3010 BEFORE, THERE -0.2139
-0.3010 BEGIN WITH -0.2872
-0.7782 BEING A -0.2982
-0.7782 BEING ABLE 0.0000
-0.7782 BEING GOING -0.2900
-0.3010 BELIEVE, DIED -0.2688
-0.3010 BELONGS? AND -0.2991
-0.3010 BEST THING -0.2688
-0.3010 BETS, ESSENTIALLY 0.0000
-0.3010 BETTER SHAPE 0.0000
-0.3010 BETWEEN 50 0.0000
-0.9031 BIG CONSPIRACY? 0.0000
-0.9031 BIG PANDEMIC -0.2430
-0.9031 BIG SEARCH 0.0000
-0.9031 BIG STORY -0.2632
-0.3010 BIGGER LAPTOP 0.0000
-0.3010 BIGGEST PROTECTION 0.0000
-0.7782 BIRD BRAIN 0.0000
-0.7782 BIRD BUT -0.2858
-0.7782 BIRD DOESN'T -0.2218
-0.3010 BIRDS TO -0.2989
-0.6021 BITS </s> -0.3010
-0.6021 BITS OF -0.2977
-0.3010 BIZ WEDNESDAY 0.0000
-0.3010 BLANKET OVER -0.1761
-0.3010 BODY'S IMMUNE -0.1761
-0.6021 BOOKS </s> -0.3010
-0.6021 BOOKS ABOUT -0.2093
-0.3010 BOOM OR -0.2881
-0.3010 BORNE </s> -0.3010
-0.3010 BOUGHT A -0.2982
-0.3010 BRAIN HERSELF, 0.0000
-0.3010 BRAINS, ISN'T 0.0000
-0.3010 BRANCHES OF -0.2977
-0.3010 BREAKFAST WITH -0.2872
-0.3010 BREATHING FIRE, 0.0000
-0.6021 BRIAN BRUSHWOOD?? 0.0000
-0.6021 BRIAN IS -0.2833
-0.3010 BROADCAST </s> -0.3010
-0.3010 BROUGHT TO -0.2989
-0.3010 BRUSHWOOD?? </s> -0.3010
-0.3010 BRUTALLY IMPACTED 0.0000
-0.3010 BS? </s> -0.3010
-0.3010 BUDDY AND -0.2991
-0.3010 BUSINESS MODEL 0.0000
-0.3010 BUST? </s> -0.3010
-1.7634 BUT ALSO -0.2730
-1.4624 BUT AT -0.1996
-1.2863 BUT I -0.2544
-1.7634 BUT IN -0.2977
-1.7634 BUT IT'S -0.2951
-1.7634 BUT NOT -0.2894
-1.7634 BUT PEOPLE -0.2467
-1.7634 BUT SHE -0.2688
-1.7634 BUT SHE'S -0.2218
-1.1614 BUT THE -0.2906
-1.4624 BUT THEN -0.2430
-1.2863 BUT THERE -0.1891
-1.4624 BUT TO -0.2925
-1.7634 BUT WE -0.2752
-1.4624 BUT WE'RE -0.2218
-1.7634 BUT WHAT -0.2852
-1.4624 BUT YOU -0.2846
-0.3010 BUT, SO -0.2926
-0.9031 BY 365, 0.0000
-0.9031 BY AOL -0.1761
-0.9031 BY GOTOMYPC, 0.0000
-0.9031 BY THAT -0.2984
-0.3010 BY; AUDIBLE -0.1249
-0.3010 CALACANIS </s> -0.3010
-0.4260 CALL IT -0.2825
-0.9031 CALL THAT -0.2984
-0.3010 CAME BACK -0.1249
-1.2553 CAN ALREADY -0.2218
-1.2553 CAN DO -0.2788
-1.2553 CAN GET -0.2840
-1.2553 CAN HAVE -0.2950
-1.2553 CAN MAKE -0.1761
-1.2553 CAN SPREAD -0.1761
-1.2553 CAN USE 0.0000
-1.2553 CAN WE -0.2926
-1.2553 CAN WORRY 0.0000
-0.7782 CAN'T REALLY -0.2553
-0.7782 CAN'T SEE -0.2762
-0.7782 CAN'T WASTE 0.0000
-0.3010 CAPRICORN </s> -0.3010
-0.6021 CAR </s> -0.3010
-0.6021 CAR ACCIDENTS 0.0000
-0.3010 CATCH THE -0.2987
-0.7782 CATHERINE </s> -0.3010
-0.7782 CATHERINE HALL, 0.0000
-0.7782 CATHERINE IS -0.2711
-0.3010 CATHERINE, YOU'RE -0.2730
-0.3010 CATHERINEHALL </s> -0.3010
-0.3010 CAUSE FOR -0.2932
-0.3010 CAUSED THE -0.2999
-0.9031 CDC AND -0.2972
-0.9031 CDC DOES 0.0000
-0.6021 CDC IS -0.2952
-0.3010 CDC, I -0.2990
-0.3010 CENTER FOR -0.2852
-0.3010 CENTERS FOR -0.2852
-0.3010 CENTURY AND -0.2814
-0.3010 CERTAIN ASPECT 0.0000
-0.3010 CERTAINLY, IT -0.2937
-0.3010 CHAT ROOM 0.0000
-0.3010 CHATTER </s> -0.3010
-0.6021 CHEAP ONES 0.0000
-0.6021 CHEAP RED 0.0000
-0.3010 CITY, I -0.2846
-0.3010 CLEANER AND -0.2991
-0.3010 CLICK ON -0.2937
-0.3010 CLICKING ON -0.2131
-0.3010 CLOCK BROADCAST 0.0000
-0.3010 CLOSE RELATIVE 0.0000
-0.3010 CLOSER TO -0.2968
-0.3010 CO-HOST ON -0.2131
-0.3010 COLLEEN GO, -0.1761
-0.3010 COLUMBIA, I -0.2783
-0.3010 COM </s> -0.3010
-0.3010 COM/PODCASTING </s> -0.3010
-0.3010 COM/TWIT </s> -0.3010
-0.3010 COM/TWIT2 </s> -0.3010
-1.1461 COME ACROSS -0.1761
-1.1461 COME FROM -0.2881
-1.1461 COME HOME 0.0000
-1.1461 COME IN -0.2977
-1.1461 COME ON, -0.1761
-1.1461 COME OUT, -0.2218
-1.1461 COME UP -0.2762
-0.3010 COMES FROM -0.2747
-0.3010 COMING FROM -0.2609
-0.3010 COMMUNICATION AND -0.2991
-0.3010 COMMUNICATION, TO -0.2989
-0.3010 COMPANY THAT -0.2984
-0.3010 COMPARED TO -0.2925
-0.6021 COMPLETELY DIFFERENT? 0.0000
-0.6021 COMPLETELY REPORTED 0.0000
-0.3010 COMPROMISE, BECAUSE -0.2900
-0.6021 COMPROMISED </s> -0.3010
-0.6021 COMPROMISED TO -0.2989
-0.3010 COMPUTER? </s> -0.3010
-0.3010 CONCERN </s> -0.3010
-0.3010 CONCERN, AND -0.2991
-0.4771 CONCERNED ABOUT -0.2576
-0.7782 CONCERNED THAT -0.2931
-0.3010 CONDITIONS OF -0.2335
-0.3010 CONNECTED AND -0.2991
-0.3010 CONSONANTS AND -0.2814
-0.7782 CONSPIRACY </s> -0.3010
-0.7782 CONSPIRACY THEORIES 0.0000
-0.7782 CONSPIRACY THEORIES, 0.0000
-0.3010 CONSPIRACY, IT -0.2974
-0.3010 CONSPIRACY? WAS -0.2935
-0.3010 CONTACT WITH -0.2430
-0.3010 CONTAGIOUS AMONG 0.0000
-0.3010 CONTAGIOUS, IT'S -0.2643
-0.6021 CONTAIN THEMSELVES -0.1761
-0.6021 CONTAIN VIRAL -0.1761
-0.3010 CONTEMPORARY, THEY -0.2929
-0.3010 CONTRACTED THE -0.2999
-0.3010 CONTROL IS -0.2981
-0.3010 CONTROL, BUT -0.2780
-0.3010 COSTS LIKE -0.2663
-0.3010 COUGH, THOSE -0.2808
-0.3010 COUGHING, AND? 0.0000
-0.6690 COULD BE -0.2460
-1.1461 COULD NEVER 0.0000
-1.1461 COULD SPREAD -0.1761
-1.1461 COULD THIS -0.2958
-1.1461 COULD YOU -0.2888
-0.3010 COULDN'T BE -0.2906
-0.3010 COUPLE OF -0.2977
-0.3010 COURSE, THEY'RE -0.2218
-0.3010 COURTEOUS, THEY -0.2846
-0.3010 COVER THE -0.2999
-0.3010 COVER, ALL -0.2688
-0.3010 COVERED UP -0.2762
-0.3010 COVERS ALL -0.2688
-0.3010 CRAZINESS </s> -0.3010
-0.3010 CREATED FRIENDFEED 0.0000
-0.3010 CROWDED, AND -0.2874
-0.3010 CURRY COULDN'T 0.0000
-0.6021 CYCLE, AND -0.2972
-0.6021 CYCLE, TUNE 0.0000
-0.3010 CYTOKINE STORM, 0.0000
-0.3010 DAILY BASIS 0.0000
-1.0000 DANGEROUS </s> -0.3010
-1.0000 DANGEROUS AND -0.2952
-0.5229 DANGEROUS FOR -0.2341
-0.7782 DAY </s> -0.3010
-0.7782 DAY AND -0.2991
-0.7782 DAY BECAUSE -0.2672
-0.6021 DAYS BREATHING 0.0000
-0.6021 DAYS TO -0.2968
-0.7782 DAYS, AT -0.2825
-0.7782 DAYS, IS -0.2952
-0.7782 DAYS, MAYBE -0.2632
-0.3010 DEATH SENTENCE 0.0000
-0.3010 DEATHS MORE -0.2840
-0.3010 DEGREE THAT -0.2850
-0.3010 DELL FX 0.0000
-0.3010 DEPARTMENT GOING -0.2900
-0.3010 DEPLORABLE </s> -0.3010
-0.3010 DESIGNED THIS -0.2958
-0.3010 DESKTOP REPLACEMENT 0.0000
-0.3010 DETERMINE WHETHER 0.0000
-0.3010 DEVELOPING STORY -0.2632
-0.7782 DID </s> -0.3010
-0.7782 DID A -0.2982
-0.7782 DID SAY 0.0000
-0.3010 DIDN'T HAVE -0.2825
-0.3010 DIE TODAY -0.2430
-1.1461 DIED AND -0.2952
-1.1461 DIED FROM -0.2881
-0.6690 DIED IN -0.2805
-1.1461 DIED OF -0.2843
-1.1461 DIED YET -0.2218
-0.3010 DIED, AND -0.2991
-0.7782 DIFFERENT TISSUES 0.0000
-0.7782 DIFFERENT VIRUSES 0.0000
-0.7782 DIFFERENT WAYS 0.0000
-0.3010 DIFFERENT? </s> -0.3010
-0.3010 DIGITAL PHOTOGRAPHER -0.1761
-0.3010 DIRECTLY TO -0.2925
-0.9031 DISEASE </s> -0.3010
-0.9031 DISEASE AS -0.2663
-0.9031 DISEASE CONTROL 0.0000
-0.9031 DISEASE CONTROL, 0.0000
-0.6021 DISEASE, AND -0.2991
-0.6021 DISEASE, THE -0.2999
-0.3010 DIVIDED BY -0.2430
-1.3010 DO </s> -0.3010
-1.3010 DO ANYTHING -0.1761
-1.3010 DO KNOW -0.2915
-1.3010 DO NEED -0.0969
-1.3010 DO THEY -0.2929
-1.3010 DO WE -0.2926
-1.3010 DO WITH -0.2583
-1.0000 DO YOU -0.2719
-1.3010 DO YOUR -0.2825
-0.3010 DOCTOR LIKE -0.2926
-0.3010 DOES HAVE -0.2950
-0.7782 DOESN'T COME -0.2688
-0.7782 DOESN'T HAVE -0.2950
-0.7782 DOESN'T WANT -0.2730
-0.9031 DOING ? -0.2926
-0.9031 DOING IN -0.2977
-0.9031 DOING THE -0.2999
-0.9031 DOING WITH -0.2583
-0.3010 DOLLAR OR -0.2881
-0.3010 DOMAIN NAME 0.0000
-1.5315 DON'T COME -0.2688
-1.2304 DON'T EVEN -0.1461
-1.5315 DON'T GET -0.2663
-1.5315 DON'T JUST -0.2872
-0.8325 DON'T KNOW -0.2511
-1.2304 DON'T KNOW, 0.0000
-1.5315 DON'T THAT -0.2931
-1.5315 DON'T THINK -0.2553
-1.0544 DON'T WANT -0.2109
-0.3010 DOTS ON -0.2131
-0.3010 DOUBLE -- -0.2808
-0.7782 DOWN A -0.2954
-0.4771 DOWN SCHOOLS -0.1249
-0.3010 DR </s> -0.3010
-0.3010 DUDE, LIKE -0.2926
-0.6021 DYING ARE -0.2913
-0.9031 DYING FROM -0.2881
-0.9031 DYING OF -0.2977
-0.3010 EARLIER INCIDENCES 0.0000
-0.6021 EARLY 20TH 0.0000
-0.6021 EARLY AS -0.2840
-0.3010 EASILY, AND -0.2773
-0.3010 EAST, AND -0.2952
-0.3010 EATING BRIAN -0.1761
-0.3010 EDITION OF -0.2977
-0.3010 EGYPT FOR -0.2852
-0.3010 EIGHT POUNDS 0.0000
-0.3010 ELDERLY, PEOPLE -0.2467
-0.3010 EMBARRASSED ABOUT -0.2906
-0.7782 END OF -0.2335
-0.4771 END UP -0.1919
-1.0000 ENOUGH FOR -0.2932
-0.3979 ENOUGH TO -0.2925
-0.3010 ENTIRE MEETING -0.1761
-0.6021 EPIDEMIOLOGISTS DOING -0.2430
-0.6021 EPIDEMIOLOGISTS THAT -0.2984
-0.3010 EPISODE 192 0.0000
-0.3010 ESPECIALLY NEW -0.2430
-0.3010 ESSENTIALLY </s> -0.3010
-0.3010 EUROPE, AND -0.2972
-0.3010 EVAN WILLIAMS 0.0000
-1.0000 EVEN IN -0.2402
-0.5229 EVEN KNOW -0.2293
-1.0000 EVEN MORE -0.2840
-0.3010 EVER? </s> -0.3010
-0.3010 EVERY TIME -0.2688
-0.3010 EVERYBODY KNOWS, 0.0000
-0.3010 EVERYBODY'S LIKE, -0.2808
-0.3010 EVERYBODY, PEACE 0.0000
-0.3010 EVERYONE TO -0.2989
-0.3010 EVERYTHING I -0.2990
-0.3010 EVERYWHERE </s> -0.3010
-0.3010 EXACTLY AND -0.2972
-0.3010 EXPERTS TO -0.2968
-0.3010 EXPOSED TO -0.2968
-1.0792 FACT I -0.2888
-1.0792 FACT MOST -0.2041
-1.0792 FACT OF -0.2944
-0.7782 FACT THAT -0.2768
-1.0792 FACT WHAT -0.2852
-0.3010 FACTORS, WHEN -0.2553
-0.3010 FAILED US -0.2553
-0.3010 FALSE SENSE -0.1761
-0.3010 FARTHEST I -0.2970
-0.3010 FATAL FOR -0.2932
-0.6021 FATALITIES </s> -0.3010
-0.6021 FATALITIES ARE -0.2962
-0.3010 FATALITY RATE 0.0000
-0.3010 FEDERAL GOVERNMENT -0.1249
-0.3010 FEEL LIKE -0.2926
-0.3010 FEW HOURS, 0.0000
-0.3010 FIGURE I -0.2990
-0.3010 FINALLY, LAST -0.2218
-0.6021 FINANCE RELATED, 0.0000
-0.6021 FINANCE RELATED? 0.0000
-0.3010 FIND A -0.2982
-0.3010 FINE </s> -0.3010
-0.3010 FIRE EATING 0.0000
-0.3010 FIRE, THE -0.2999
-0.6021 FIVE DAYS -0.1761
-0.6021 FIVE YEARS 0.0000
-0.3010 FLIP-SIDE IS, -0.2632
-1.2304 FLU </s> -0.3010
-1.5315 FLU AND -0.2874
-1.5315 FLU BECAUSE -0.2553
-1.5315 FLU COME -0.2688
-1.5315 FLU COMING 0.0000
-1.0544 FLU IS -0.2742
-1.5315 FLU ITSELF 0.0000
-1.5315 FLU MIGHT -0.2218
-1.5315 FLU STUFF, -0.1761
-1.0544 FLU THAT -0.2877
-1.5315 FLU TO -0.2968
-1.5315 FLU WHICH -0.2553
-1.0000 FLU, AND -0.2874
-1.0000 FLU, IN -0.2977
-1.0000 FLU, IS -0.2952
-1.0000 FLU, THAT -0.2796
-1.0000 FLU, THEREFORE 0.0000
-0.3010 FLU? </s> -0.3010
-0.3010 FLUS, THE -0.2999
-0.6021 FLYING AROUND -0.2218
-0.6021 FLYING IN -0.2977
-0.3010 FOLKS HAD -0.2632
-0.7782 FOLLOW ALL -0.2852
-0.7782 FOLLOW AUDIBLE -0.2218
-0.7782 FOLLOW THIS, -0.1761
-1.7482 FOR </s> -0.3010
-1.7482 FOR ALL -0.2518
-1.4472 FOR AN -0.2109
-1.7482 FOR APRIL 0.0000
-1.7482 FOR BABIES 0.0000
-1.7482 FOR CONCERN 0.0000
-1.4472 FOR DISEASE -0.1761
-1.7482 FOR IS -0.2742
-1.7482 FOR PEOPLE -0.2467
-1.7482 FOR SEVERAL 0.0000
-1.7482 FOR SOME, 0.0000
-1.4472 FOR THAT -0.2958
-0.9700 FOR THE -0.2917
-1.7482 FOR THEM -0.2688
-1.7482 FOR THIS -0.2852
-1.7482 FOR TWIT, 0.0000
-1.4472 FOR YOU -0.2804
-1.7482 FOR YOUR -0.2825
-1.7482 FOR YOURSELF -0.2218
-0.3010 FORM OF -0.2977
-0.3010 FORT RILEY, 0.0000
-0.3010 FORTH, AND -0.2991
-0.6021 FREE BOOKS -0.1761
-0.6021 FREE THIRTY-DAY 0.0000
-0.3010 FRESH BAD 0.0000
-0.6021 FRIEND AND -0.2991
-0.6021 FRIEND WHO -0.2852
-0.3010 FRIENDFEED AND -0.2991
-1.2304 FROM A -0.2954
-1.5315 FROM ANYWHERE 0.0000
-1.5315 FROM ASIA, -0.1761
-1.5315 FROM BIRDS 0.0000
-1.5315 FROM COUGHING, 0.0000
-1.5315 FROM GETTING -0.2218
-1.5315 FROM HIS -0.1761
-1.5315 FROM INFECTING 0.0000
-1.5315 FROM IT -0.2825
-1.5315 FROM LINKS -0.1761
-1.5315 FROM ME, -0.2218
-1.5315 FROM POLLUTION 0.0000
-1.2304 FROM THE -0.2987
-1.5315 FROM THIS -0.2798
-1.5315 FROM YOUR -0.2825
-0.3010 FUNDED AS -0.2840
-0.3010 FUNDED, YES, -0.2609
-0.3010 FX GAMING? 0.0000
-0.3010 GAME ON -0.2131
-0.3010 GAMES </s> -0.3010
-0.3010 GAMING LAPTOP, 0.0000
-0.3010 GAMING? </s> -0.3010
-0.6021 GARAGE </s> -0.3010
-0.6021 GARAGE TODAY -0.1761
-0.3010 GARAGE, IS -0.2742
-0.7782 GATEWAY </s> -0.3010
-0.4771 GATEWAY LOGO -0.1249
-0.3010 GATEWAY, I -0.2846
-0.6021 GAVE PEOPLE -0.2946
-0.6021 GAVE YOU -0.2970
-0.3010 GEEK, AS -0.2840
-0.6021 GENTLEMEN, MISS 0.0000
-0.6021 GENTLEMEN, MY -0.2688
-1.4150 GET -- -0.2808
-1.1139 GET A -0.2897
-1.4150 GET AT -0.2825
-1.4150 GET FROM -0.2747
-1.4150 GET INTO -0.2553
-1.4150 GET MORE -0.2840
-1.4150 GET MY -0.2852
-1.4150 GET OUT -0.2218
-1.4150 GET OUT, -0.2218
-1.4150 GET THE -0.2999
-1.4150 GET TWO -0.2553
-1.4150 GET WHAT -0.2852
-0.3010 GETS INTO -0.2553
-0.7782 GETTING INTO -0.2553
-0.7782 GETTING OLD -0.1761
-0.7782 GETTING SICK -0.2553
-0.7782 GO DO -0.2788
-0.4771 GO TO -0.2968
-0.6021 GO, MAYBE -0.2632
-0.6021 GO, OH -0.2041
-0.3010 GOD </s> -0.3010
-0.3010 GOD, I -0.2888
-1.6021 GOING </s> -0.3010
-1.6021 GOING GREAT, -0.1761
-1.6021 GOING LONG -0.1761
-0.3979 GOING TO -0.2277
-1.6021 GOING TO, -0.2218
-0.3010 GOING? </s> -0.3010
-1.1461 GOOD </s> -0.3010
-1.1461 GOOD BUDDY 0.0000
-1.1461 GOOD FRIEND -0.1761
-1.1461 GOOD IDEA, 0.0000
-1.1461 GOOD PERSON -0.2041
-1.1461 GOOD POINT, -0.1761
-1.1461 GOOD TRAFFIC, 0.0000
-0.3010 GOODNESS </s> -0.3010
-0.6021 GOOGLE MAP, -0.1249
-0.9031 GOOGLE MAPS 0.0000
-0.9031 GOOGLE MAPS, 0.0000
-1.0000 GOT IT -0.2937
-1.0000 GOT ONE -0.2852
-0.6990 GOT THE -0.2976
-1.0000 GOT TO -0.2794
-0.3010 GOTOMYPC </s> -0.3010
-0.3010 GOTOMYPC, UNCHAIN 0.0000
-0.7782 GOVERNMENT IS -0.2923
-0.4771 GOVERNMENT THAT -0.2958
-0.3010 GRABBING ON -0.2937
-0.3010 GRAPHICS DEPARTMENT 0.0000
-1.0792 GREAT GOOGLE -0.1761
-1.0792 GREAT SHOW, 0.0000
-0.6021 GREAT TO -0.2882
-1.0792 GREAT WAY -0.2430
-0.6021 GREAT, IT'S -0.2951
-0.6021 GREAT, THERE -0.2374
-0.6021 GREATEST BUSINESS 0.0000
-0.6021 GREATEST WEEK -0.2430
-0.7782 GUESS NOW -0.2499
-0.7782 GUESS SHE -0.2688
-0.7782 GUESS THE -0.2999
-0.3010 H1N1 SUB-TYPE, 0.0000
-1.0792 HAD </s> -0.3010
-1.0792 HAD A -0.2897
-1.0792 HAD ALSO -0.2730
-1.0792 HAD BREAKFAST 0.0000
-1.0792 HAD FRIEND -0.1761
-1.0792 HAD IT, -0.2218
-0.3010 HADN'T EXPOSED 0.0000
-0.7782 HALF IN -0.2402
-0.4771 HALF THE -0.2964
-0.3010 HALF, LIKE, -0.2808
-0.3010 HALL, MY -0.2688
-0.6021 HAND </s> -0.3010
-0.6021 HAND OR, 0.0000
-0.3010 HANDS </s> -0.3010
-0.6021 HANDS, REALLY -0.2553
-0.6021 HANDS, THAT'S -0.2923
-0.3010 HAPPEN TO -0.2989
-0.6021 HAPPEN, WE -0.2752
-0.6021 HAPPEN, YES, -0.2881
-0.3010 HAPPENED TO -0.2794
-0.3010 HAPPENING WITH -0.2872
-0.9031 HAS ALREADY -0.2218
-0.9031 HAS DIED -0.2688
-0.9031 HAS IT? -0.1761
-0.9031 HAS NO -0.2762
-0.4771 HATERS </s> -0.3010
-0.7782 HATERS OUT -0.2632
-1.8573 HAVE -- -0.2808
-1.8573 HAVE </s> -0.3010
-1.3802 HAVE A -0.2926
-1.8573 HAVE ACTUALLY -0.2632
-1.8573 HAVE ALREADY -0.2218
-1.8573 HAVE ANYTHING -0.1761
-1.2553 HAVE BEEN -0.1091
-1.3802 HAVE DIED -0.1963
-1.8573 HAVE FAILED 0.0000
-1.8573 HAVE FOR -0.2932
-1.8573 HAVE HEARD -0.2218
-1.8573 HAVE INTERNATIONAL -0.1761
-1.8573 HAVE JOBS 0.0000
-1.8573 HAVE KNOWN 0.0000
-1.8573 HAVE NO -0.2762
-1.8573 HAVE NUMBERS -0.2430
-1.8573 HAVE ON -0.2937
-1.8573 HAVE PICKED 0.0000
-1.8573 HAVE POSSIBLY 0.0000
-1.8573 HAVE READ -0.2218
-1.8573 HAVE SURVIVED 0.0000
-1.8573 HAVE TAKEN 0.0000
-1.5563 HAVE THE -0.2987
-1.8573 HAVE THE? 0.0000
-1.8573 HAVE THESE -0.2788
-1.8573 HAVE TO -0.2989
-1.8573 HAVE WEAKENED 0.0000
-1.8573 HAVE YOU -0.2970
-0.7782 HAVEN'T BEEN -0.2688
-0.7782 HAVEN'T COMPLETELY -0.1761
-0.7782 HAVEN'T SEEN 0.0000
-0.6021 HAVING THE -0.2987
-0.6021 HAVING TO -0.2989
-0.7782 HE IS -0.2981
-0.7782 HE SAID -0.2632
-0.7782 HE WAS -0.2935
-0.3010 HE'S BACK -0.1249
-0.3010 HEAD AND -0.2991
-1.0000 HEALTH CONDITIONS 0.0000
-1.0000 HEALTH OFFICIALS 0.0000
-0.6990 HEALTH ORGANIZATION -0.1249
-1.0000 HEALTH SYSTEM -0.2218
-0.3010 HEALTHIER AND -0.2952
-0.7782 HEARD A -0.2982
-0.7782 HEARD THE -0.2999
-0.7782 HEARD WAS, 0.0000
-0.3010 HEAVY IS -0.2981
-0.3010 HECK IS -0.2952
-0.3010 HELLO, JASON, -0.1761
-0.3010 HELP </s> -0.3010
-0.3010 HELP? </s> -0.3010
-0.3010 HELPFUL, I -0.2867
-0.3010 HER LIPS 0.0000
-1.0000 HERE, ALL -0.2518
-1.0000 HERE, HE -0.2218
-1.0000 HERE, I -0.2783
-1.0000 HERE, I'M -0.2788
-1.0000 HERE, OUR -0.2688
-0.3010 HERSELF </s> -0.3010
-0.3010 HERSELF, LADIES 0.0000
-0.3010 HEY PATRICK -0.2218
-0.6021 HIGH LEVEL 0.0000
-0.6021 HIGH LEVELS 0.0000
-0.3010 HIGH? </s> -0.3010
-0.6021 HIS DAYS -0.1761
-0.6021 HIS PLACE -0.1761
-0.3010 HOME AND -0.2991
-0.3010 HOMIES </s> -0.3010
-0.3010 HONEST HERE, -0.2553
-0.3010 HOPE FOR -0.2932
-0.3010 HOSPITAL, WHERE -0.2553
-0.3010 HOST OF -0.2977
-0.6021 HOUR AND -0.2972
-0.6021 HOUR NEWS -0.2341
-0.3010 HOURS, THESE -0.2304
-1.2041 HOW ARE -0.2913
-1.2041 HOW HEAVY 0.0000
-1.2041 HOW I -0.2990
-1.2041 HOW IS -0.2923
-1.2041 HOW MANY -0.2041
-1.2041 HOW MANY, -0.1761
-0.9031 HOW TO -0.2968
-0.3010 HOWDY </s> -0.3010
-0.3010 HUGE RIGHT -0.2730
-0.3010 HUMAN SPECIES 0.0000
-0.3010 HYGIENE ISSUES, 0.0000
-0.4771 HYSTERIA </s> -0.3010
-0.7782 HYSTERIA AND -0.2991
-2.3345 I </s> -0.3010
-2.3345 I ? -0.2926
-2.0334 I ACTUALLY -0.2218
-1.2931 I AM 0.0000
-2.3345 I BELIEVE, 0.0000
-2.0334 I CAN -0.2499
-1.8573 I CAN'T 0.0000
-2.3345 I COVERED 0.0000
-1.5563 I DON'T -0.2167
-2.3345 I FEEL 0.0000
-2.3345 I FIGURE 0.0000
-2.3345 I GET -0.2663
-2.3345 I GOT -0.2553
-1.8573 I GUESS 0.0000
-2.0334 I HAD -0.2218
-2.3345 I HAPPEN 0.0000
-1.5563 I HAVE -0.2499
-2.3345 I HAVEN'T -0.2218
-2.0334 I HEARD -0.1249
-1.8573 I KNOW -0.2403
-2.3345 I LEARNED 0.0000
-2.3345 I LOOK, 0.0000
-1.4894 I MEAN -0.0000
-1.2205 I MEAN, 0.0000
-2.3345 I NOTICED 0.0000
-2.3345 I PAUSED, 0.0000
-2.3345 I PUT -0.2553
-2.3345 I READ -0.2218
-2.3345 I SAID -0.1761
-2.3345 I SAW 0.0000
-2.3345 I SEE -0.2762
-2.3345 I SHOULD -0.2430
-2.3345 I SPEND 0.0000
-2.3345 I TEASE, 0.0000
-1.4314 I THINK -0.0414
-2.3345 I THINK, 0.0000
-2.3345 I THOUGHT, 0.0000
-2.3345 I WANT -0.2109
-1.6355 I WAS -0.2188
-2.3345 I WASHED 0.0000
-2.3345 I WASN'T, 0.0000
-2.3345 I WILL -0.1963
-2.0334 I WISH 0.0000
-2.3345 I WONDER 0.0000
-2.3345 I WONDER, 0.0000
-2.3345 I WORKED 0.0000
-2.3345 I WOULD -0.2430
-2.3345 I WOULDN'T -0.1761
-1.3010 I'M ALWAYS -0.1761
-0.8239 I'M GOING -0.0792
-1.3010 I'M LIKE, -0.2808
-1.3010 I'M SORRY 0.0000
-1.3010 I'M TALKING -0.2041
-1.3010 I'M THINKING?? 0.0000
-1.3010 I'M VERY -0.2825
-1.3010 I'M WORRIED 0.0000
-0.3010 I'VE BEEN -0.2341
-0.3010 ID AUDIBLE_COM; 0.0000
-0.6021 IDEA THAT -0.2931
-0.6021 IDEA WHAT -0.2932
-0.3010 IDEA, IT -0.2974
-1.2041 IF I -0.2970
-1.2041 IF IT -0.2672
-1.2041 IF IT'S -0.2891
-1.5051 IF THAT -0.2984
-1.5051 IF THAT'S -0.2833
-0.8062 IF YOU -0.2499
-1.5051 IF YOU'RE -0.1383
-1.5051 IF YOU'RE? 0.0000
-1.5051 IF YOU? 0.0000
-0.3010 IF, IS -0.2833
-0.3010 IGNORE EVERYONE 0.0000
-0.3010 IMAGINE </s> -0.3010
-0.9031 IMMUNE COMPROMISED -0.1761
-0.6021 IMMUNE SYSTEM -0.1249
-0.9031 IMMUNE SYSTEMS 0.0000
-0.3010 IMMUNITIES THAT -0.2796
-0.3010 IMPACTED WAS -0.2935
-0.3010 IMPORTANT PEOPLE -0.2609
-1.5119 IN A -0.2840
-2.1139 IN ALL -0.2518
-2.1139 IN ASIA, -0.1761
-2.1139 IN BETTER 0.0000
-2.1139 IN BIZ 0.0000
-2.1139 IN CAR -0.1761
-2.1139 IN COLUMBIA, 0.0000
-2.1139 IN CONTACT 0.0000
-2.1139 IN DIFFERENT -0.2218
-2.1139 IN DOUBLE 0.0000
-2.1139 IN EUROPE, 0.0000
-2.1139 IN EXPERTS 0.0000
-1.6368 IN FACT -0.1761
-2.1139 IN FORT 0.0000
-2.1139 IN HALF -0.1249
-2.1139 IN HIS -0.1761
-2.1139 IN JAPAN, 0.0000
-2.1139 IN JAPAN? 0.0000
-2.1139 IN KANSAS 0.0000
-1.8129 IN MEXICO 0.0000
-1.5119 IN MEXICO, -0.1249
-2.1139 IN MY -0.2852
-1.8129 IN NEW -0.1761
-2.1139 IN ORDER 0.0000
-2.1139 IN SEOUL 0.0000
-2.1139 IN SKYPEBOX 0.0000
-2.1139 IN SOME -0.1963
-2.1139 IN SURGERIES 0.0000
-2.1139 IN TAKING -0.2218
-1.8129 IN TECH -0.1249
-2.1139 IN TECH, 0.0000
-2.1139 IN TERMS -0.1761
-2.1139 IN TEXAS 0.0000
-0.8835 IN THE -0.2688
-1.8129 IN THIS -0.2852
-2.1139 IN TO -0.2925
-2.1139 IN TWO -0.2553
-0.3010 INCIDENCES OF -0.2977
-0.6021 INCREDIBLY COURTEOUS, 0.0000
-0.6021 INCREDIBLY IN -0.2402
-0.3010 INDIA, WHICH -0.2553
-0.3010 INDIAN ARMY, 0.0000
-0.3010 INFECTING OTHER -0.2730
-0.3010 INFLUENZA, LIKE -0.2926
-0.3010 INFOWARS HAS -0.2430
-0.3010 INITIALLY, WHO -0.2852
-0.3010 INSTANT COMMUNICATION, 0.0000
-0.3010 INSTANTLY KNOW -0.2915
-0.3010 INSTIGATE ME -0.2041
-0.3010 INTELLIGENT </s> -0.3010
-0.3010 INTERCONNECTED AND -0.2972
-0.6990 INTERESTING ABOUT -0.1963
-1.0000 INTERESTING POINT, -0.1761
-1.0000 INTERESTING THEY -0.2929
-1.0000 INTERESTING TO -0.2989
-0.7782 INTERESTING, I -0.2867
-0.7782 INTERESTING, IN -0.2977
-0.7782 INTERESTING, YEAH, -0.2730
-0.6021 INTERNATIONAL TRAVEL 0.0000
-0.6021 INTERNATIONAL WITHIN -0.1761
-1.0000 INTO CONTACT 0.0000
-1.0000 INTO DIFFERENT -0.2218
-1.0000 INTO THE -0.2999
-1.0000 INTO THEIR 0.0000
-1.0000 INTO THIS, -0.1761
-2.1761 IS 44,000 0.0000
-2.1761 IS </s> -0.3010
-2.1761 IS ? -0.2926
-1.1761 IS A -0.2509
-1.8751 IS ALSO -0.2430
-2.1761 IS AN -0.2430
-2.1761 IS BECAUSE -0.2900
-2.1761 IS BROUGHT 0.0000
-2.1761 IS BS? 0.0000
-1.8751 IS DANGEROUS -0.1461
-2.1761 IS EVEN -0.2553
-2.1761 IS FATAL 0.0000
-2.1761 IS FOR -0.2932
-2.1761 IS GOING -0.0792
-2.1761 IS GOOGLE -0.2430
-2.1761 IS GREAT, -0.1761
-2.1761 IS HAPPENING 0.0000
-1.8751 IS I -0.2825
-2.1761 IS IN -0.2402
-1.6990 IS IT -0.2900
-2.1761 IS JUST -0.2872
-2.1761 IS LIKE -0.2926
-2.1761 IS LIKE, -0.2808
-2.1761 IS LOOKING -0.0969
-2.1761 IS MY -0.2852
-2.1761 IS NEWS -0.2688
-1.6990 IS NOT -0.2527
-2.1761 IS NOW -0.2762
-2.1761 IS ONE -0.2852
-2.1761 IS PROVIDED 0.0000
-2.1761 IS SCARIER 0.0000
-2.1761 IS SHOWING 0.0000
-2.1761 IS SOME -0.2688
-1.8751 IS SOMETHING -0.1891
-2.1761 IS TAKING -0.2218
-2.1761 IS TECHNOLOGY -0.1761
-1.2218 IS THAT -0.2332
-1.3979 IS THE -0.2906
-2.1761 IS THERE -0.2910
-1.8751 IS THIS -0.2744
-2.1761 IS THIS? -0.1761
-2.1761 IS THOUGH 0.0000
-2.1761 IS TO -0.2989
-2.1761 IS TWIT; 0.0000
-1.0792 IS, AS -0.2840
-1.0792 IS, BECAUSE -0.2788
-1.0792 IS, IF -0.2872
-1.0792 IS, THE -0.2999
-1.0792 IS, THEN -0.2730
-1.0792 IS, THEY -0.2846
-0.3010 IS? </s> -0.3010
-0.3010 ISN'T IT -0.2825
-0.3010 ISSUES, IT -0.2749
-1.3802 IT </s> -0.3010
-2.0792 IT A -0.2869
-2.0792 IT AFFECTED 0.0000
-2.0792 IT AS -0.2840
-2.0792 IT BECOMES 0.0000
-2.0792 IT CAPRICORN 0.0000
-2.0792 IT COMES 0.0000
-1.7782 IT COULD -0.1549
-2.0792 IT FROM -0.2881
-2.0792 IT GAVE -0.1761
-2.0792 IT GOING? 0.0000
-2.0792 IT IN -0.2402
-1.1761 IT IS -0.2321
-1.7782 IT IS, -0.2218
-2.0792 IT JUST -0.2872
-1.7782 IT MIGHT -0.1249
-2.0792 IT MUST 0.0000
-2.0792 IT NOW? 0.0000
-2.0792 IT ON -0.2863
-2.0792 IT ON? 0.0000
-1.7782 IT RIGHT -0.0969
-2.0792 IT SPREADING 0.0000
-2.0792 IT STARTED 0.0000
-2.0792 IT TAKES 0.0000
-2.0792 IT THAN -0.2553
-2.0792 IT THAT -0.2931
-1.4771 IT THE -0.2941
-1.6021 IT TO -0.2882
-2.0792 IT VERY -0.2632
-1.2341 IT WAS -0.2188
-2.0792 IT WASN'T 0.0000
-1.7782 IT WILL -0.2341
-2.0792 IT WOULD -0.1761
-1.8692 IT'S 86 -0.2218
-1.8692 IT'S ? -0.2840
-1.1703 IT'S A -0.2869
-1.8692 IT'S AIR -0.2553
-1.8692 IT'S AMAZING 0.0000
-1.8692 IT'S AN -0.2730
-1.8692 IT'S BAD 0.0000
-1.8692 IT'S BEING -0.2218
-1.8692 IT'S CONTAGIOUS, 0.0000
-1.5682 IT'S GOING -0.0607
-1.8692 IT'S GREAT -0.1761
-1.8692 IT'S HUGE 0.0000
-1.8692 IT'S LIKE -0.2926
-1.8692 IT'S LIKE, -0.2808
-1.8692 IT'S MADE 0.0000
-1.8692 IT'S MAINLY 0.0000
-1.5682 IT'S MORE -0.2478
-1.8692 IT'S MUCH -0.1761
-1.5682 IT'S NOT -0.2653
-1.8692 IT'S REALLY -0.2553
-1.8692 IT'S SCARY -0.2218
-1.8692 IT'S SOMETHING -0.2808
-1.8692 IT'S STARTING -0.2218
-1.8692 IT'S THE -0.2999
-1.5682 IT'S THIS -0.2906
-1.8692 IT'S TIME -0.2688
-1.8692 IT'S TO -0.2968
-1.8692 IT'S USEFUL -0.2218
-1.8692 IT'S VERY -0.2825
-0.7782 IT, BECAUSE -0.2672
-0.7782 IT, LIKE -0.2926
-0.7782 IT, OR -0.2747
-0.6021 IT? </s> -0.3010
-0.6021 IT? BECAUSE -0.2900
-0.3010 ITS COURSE, 0.0000
-0.3010 ITSELF </s> -0.3010
-0.3010 JAPAN AND -0.2952
-0.3010 JAPAN, LIKE -0.2752
-0.3010 JAPAN? </s> -0.3010
-0.3010 JASON CALACANIS 0.0000
-0.6021 JASON, HOW -0.2730
-0.6021 JASON, IS -0.2952
-0.3010 JOB </s> -0.3010
-0.3010 JOB, I -0.2950
-0.3010 JOBS DON'T -0.2881
-0.3010 JUMP IN -0.2402
-1.5051 JUST -- -0.2374
-1.5051 JUST ? -0.2926
-1.5051 JUST ANOTHER -0.2430
-1.5051 JUST CAME 0.0000
-1.5051 JUST CHATTER 0.0000
-1.0280 JUST DON'T -0.2319
-1.5051 JUST KIND 0.0000
-1.5051 JUST ON -0.2131
-1.5051 JUST SAY, -0.2218
-1.5051 JUST SEEMS 0.0000
-1.5051 JUST THE -0.2987
-1.5051 JUST THROW 0.0000
-1.5051 JUST TO -0.2989
-1.5051 JUST TRAVELLED 0.0000
-0.3010 JUST? </s> -0.3010
-0.3010 KANSAS OR -0.2881
-0.6021 KEEP SOMETHING -0.2808
-0.6021 KEEP THEM -0.2688
-0.3010 KICK YOU -0.2970
-0.3010 KIKI (KIRSTEN 0.0000
-0.3010 KIKI, YOU'RE -0.2730
-0.3010 KILLED 10 0.0000
-0.3010 KILLED, THE -0.2999
-0.3010 KILLER BEES 0.0000
-0.3010 KIND OF -0.2977
-0.3010 KIPPLE AND -0.2991
-0.3010 KIRSTEN SANFORD 0.0000
-1.6628 KNOW </s> -0.3010
-1.6628 KNOW ABOUT -0.2798
-1.6628 KNOW ADAM -0.1761
-1.6628 KNOW ENOUGH -0.0792
-1.1856 KNOW IF -0.2430
-1.6628 KNOW IN -0.2875
-1.6628 KNOW MORE -0.2840
-1.0607 KNOW THAT -0.2628
-0.8846 KNOW WHAT -0.1963
-1.6628 KNOW WHAT'S -0.1761
-1.6628 KNOW WHERE -0.2041
-1.6628 KNOW YET -0.1249
-1.6628 KNOW YOU'RE -0.1383
-0.6021 KNOW, NECESSARILY -0.1761
-0.6021 KNOW, SOMETHING -0.1891
-0.3010 KNOWLEDGE AND -0.2991
-0.3010 KNOWN FOR -0.2932
-0.3010 KNOWS, WOW 0.0000
-0.3010 LADIES AND -0.2972
-0.3010 LAPTOP COMPUTER? 0.0000
-0.3010 LAPTOP, GET -0.2840
-0.7782 LAST BUT -0.2935
-0.7782 LAST COUPLE 0.0000
-0.7782 LAST TIME -0.2688
-0.3010 LEARN HOW -0.2430
-0.3010 LEARNED ABOUT -0.2688
-0.3010 LEAST, THE -0.2999
-0.3010 LEGITIMATE CONCERN, 0.0000
-0.3010 LET'S CALL -0.2430
-0.3010 LETTING OUT -0.2632
-0.3010 LEVEL MEETING -0.2430
-0.3010 LEVELS OF -0.2977
-0.3010 LIFE </s> -0.3010
-1.7160 LIKE 12 0.0000
-1.7160 LIKE 2 0.0000
-1.7160 LIKE 20% 0.0000
-1.7160 LIKE 25, 0.0000
-1.7160 LIKE 800 0.0000
-1.7160 LIKE ??? 0.0000
-1.1139 LIKE A -0.2897
-1.7160 LIKE BUT -0.2935
-1.7160 LIKE COLLEEN 0.0000
-1.7160 LIKE EIGHT 0.0000
-1.7160 LIKE FIVE -0.1761
-1.2389 LIKE I -0.2654
-1.7160 LIKE I'M -0.2788
-1.7160 LIKE ME, -0.2218
-1.7160 LIKE SOMEWHERE 0.0000
-1.4150 LIKE THE -0.2952
-1.4150 LIKE THOSE -0.2596
-1.7160 LIKE WE -0.2926
-1.7160 LIKE WOW, 0.0000
-1.3424 LIKE, 20 -0.1249
-1.3424 LIKE, DUDE, 0.0000
-1.3424 LIKE, HIGH -0.1761
-1.3424 LIKE, IT'S -0.2706
-1.3424 LIKE, OKAY, -0.1761
-1.3424 LIKE, SHE'S -0.2218
-1.3424 LIKE, THE -0.2999
-1.3424 LIKE, THERE'S -0.2553
-1.3424 LIKE, WHAT -0.2852
-1.3424 LIKE, WHOO, 0.0000
-1.3424 LIKE, YES? 0.0000
-0.3010 LIKE? </s> -0.3010
-0.3010 LINK IN -0.2402
-0.6021 LINKS AND -0.2834
-0.6021 LINKS THAT -0.2958
-0.3010 LIPS MOVING 0.0000
-0.3010 LITERALLY? </s> -0.3010
-0.9031 LITTLE BITS -0.1761
-0.9031 LITTLE NERVOUS 0.0000
-0.9031 LITTLE SCARY -0.2218
-0.9031 LITTLE TINY 0.0000
-0.7782 LOGO </s> -0.3010
-0.7782 LOGO BELONGS? 0.0000
-0.7782 LOGO WHERE -0.2041
-0.6021 LONG AS -0.2840
-0.6021 LONG ENOUGH -0.2553
-0.3010 LONG'S, THOSE -0.2596
-0.9031 LOOK AT -0.1996
-0.9031 LOOK FOR -0.2852
-0.9031 LOOK INTO -0.2553
-0.9031 LOOK SILLY 0.0000
-0.3010 LOOK, THERE -0.2374
-0.4260 LOOKING AT -0.1513
-0.9031 LOOKING OUT -0.2632
-0.3010 LOOKS LIKE -0.2926
-1.0000 LOT MORE -0.2840
-0.3979 LOT OF -0.2843
-0.6021 LOVE FOR -0.2341
-0.9031 LOVE MR 0.0000
-0.9031 LOVE THE -0.2999
-0.3010 LUNGS AND -0.2773
-0.3010 MADE UP -0.2762
-0.3010 MAINLY FOR -0.2932
-0.6021 MAJOR FACTORS, 0.0000
-0.6021 MAJOR MUTATION, 0.0000
-0.6021 MAKE IT -0.2900
-0.6021 MAKE THEM, 0.0000
-0.7782 MAKES IT -0.2974
-0.7782 MAKES PERFECT 0.0000
-0.7782 MAKES THIS -0.2958
-0.3010 MAMMAL </s> -0.3010
-0.3010 MAMMALIAN FLU, -0.2553
-0.3010 MANIPULATE PEOPLE, -0.2788
-1.0000 MANY MORE -0.2840
-0.6990 MANY PEOPLE, -0.2553
-1.0000 MANY POINTS 0.0000
-1.0000 MANY REASONS 0.0000
-0.6021 MANY, I -0.2867
-0.6021 MANY, WHAT -0.2771
-0.6021 MAP </s> -0.3010
-0.6021 MAP YET, 0.0000
-0.4771 MAP, AND -0.2972
-0.7782 MAP, THERE -0.2374
-0.3010 MAPS WHICH -0.1461
-0.3010 MAPS, YOU -0.2888
-0.3010 MARKETERS NOW -0.2762
-0.3010 MARKETING TO -0.2989
-0.3010 MASHABLE ARTICLE -0.1249
-1.0792 MASK </s> -0.3010
-1.0792 MASK AND -0.2952
-1.0792 MASK IS -0.2981
-1.0792 MASK ON -0.2131
-1.0792 MASK TO -0.2925
-1.0792 MASK WAS -0.2858
-0.3010 MASKS HELP 0.0000
-0.3010 MASKS, THE -0.2999
-0.3010 MASKS? </s> -0.3010
-0.3010 MASSIVE TWIT -0.1761
-0.3010 MAY HAVE -0.2762
-1.0792 MAYBE A -0.2982
-1.0792 MAYBE AS -0.2840
-1.0792 MAYBE MANY -0.2041
-1.0792 MAYBE THE -0.2964
-1.0792 MAYBE THEY -0.2929
-1.0792 MAYBE YOU -0.2888
-0.5229 ME </s> -0.3010
-0.6990 ME TO -0.2925
-0.7782 ME, I -0.2990
-0.7782 ME, IT'S -0.2891
-0.7782 ME, WHO -0.2852
-0.8451 MEAN </s> -0.3010
-1.1461 MEAN IF -0.2272
-0.8451 MEAN THE -0.2964
-1.1461 MEAN THERE'S -0.2553
-1.1461 MEAN THEY -0.2407
-1.4150 MEAN, ARE -0.2913
-1.1139 MEAN, BECAUSE -0.2175
-1.4150 MEAN, CAN -0.2762
-1.4150 MEAN, DIFFERENT -0.2218
-1.4150 MEAN, HOW -0.2730
-1.1139 MEAN, I -0.2970
-1.4150 MEAN, MAYBE -0.2632
-1.4150 MEAN, THAT'S -0.2923
-1.4150 MEAN, WE -0.2752
-1.4150 MEAN, WHEN -0.2041
-1.4150 MEAN, YOU -0.2888
-0.6021 MEETING </s> -0.3010
-0.9031 MEETING AND -0.2814
-0.9031 MEETING WITH -0.2872
-0.6021 MEMBRANES, AND -0.2834
-0.6021 MEMBRANES, I -0.2741
-0.3010 MENTIONED, TWITTER -0.2632
-0.3010 MERE FACT -0.2632
-0.6021 MEXICO </s> -0.3010
-0.6021 MEXICO AS -0.2663
-1.0792 MEXICO, AND -0.2952
-1.0792 MEXICO, HOW -0.2730
-1.0792 MEXICO, I -0.2783
-1.0792 MEXICO, RIGHT -0.0969
-1.0792 MEXICO, THEN -0.2730
-1.0792 MEXICO, YOU -0.2762
-0.3010 MIDDLE EAST, 0.0000
-0.7782 MIGHT BE -0.2906
-0.7782 MIGHT BECOME -0.1249
-0.7782 MIGHT TAKE -0.2218
-0.3010 MILITARY AROUND -0.2218
-0.6021 MILLION PEOPLE -0.2609
-0.6021 MILLION WERE -0.2430
-0.3010 MINOR PANIC 0.0000
-0.3010 MISS KIRSTEN 0.0000
-0.3010 MOCK THE -0.2987
-0.3010 MOCKS IT -0.2825
-0.3010 MODEL EVER? 0.0000
-1.4150 MORE ABOUT -0.2688
-1.1139 MORE AIRBORNE -0.1249
-1.4150 MORE CONNECTED 0.0000
-1.4150 MORE CONTEMPORARY, 0.0000
-1.4150 MORE DANGEROUS -0.2553
-1.4150 MORE DOTS 0.0000
-1.4150 MORE HELPFUL, 0.0000
-1.4150 MORE INTERCONNECTED 0.0000
-1.4150 MORE OF? 0.0000
-1.4150 MORE PEOPLE -0.2946
-1.4150 MORE SO -0.2926
-1.4150 MORE USEFUL -0.2218
-0.3010 MORNING TO -0.2989
-0.3010 MORONS </s> -0.3010
-1.0000 MOST FLUS, 0.0000
-1.0000 MOST OF -0.2977
-0.6990 MOST PEOPLE -0.2539
-1.0000 MOST STRIKING 0.0000
-0.3010 MOSTLY SOLDIERS, 0.0000
-0.3010 MOUTH, BUT -0.2858
-0.3010 MOVING </s> -0.3010
-0.3010 MR </s> -0.3010
-0.6021 MUCH MORE -0.2663
-0.6021 MUCH TIME -0.2341
-0.3010 MUCOUS MEMBRANES, 0.0000
-0.3010 MULTIPLYING WITHIN -0.1761
-0.3010 MUST BE -0.2798
-0.3010 MUTATION, AND -0.2874
-1.4472 MY COMPROMISE, 0.0000
-1.4472 MY GAME 0.0000
-1.1461 MY GOOD -0.2341
-1.4472 MY HANDS, -0.1761
-1.4472 MY HOMIES 0.0000
-1.4472 MY LIFE 0.0000
-1.4472 MY OLD -0.1761
-1.4472 MY PEOPLES 0.0000
-1.4472 MY RELATIVES, 0.0000
-1.4472 MY ROOM? 0.0000
-1.4472 MY TIME -0.2688
-1.4472 MY WIFE 0.0000
-1.4472 MY WIFE'S 0.0000
-0.3010 NAME AND -0.2991
-0.6021 NECESSARILY SOMETHING -0.1891
-0.6021 NECESSARILY THAT -0.2958
-0.9031 NEED A -0.2982
-0.4260 NEED TO -0.2750
-0.3010 NERVOUS ABOUT -0.2906
-0.3010 NET </s> -0.3010
-0.3010 NEVER MAKE -0.1761
-0.9031 NEW TO -0.2989
-0.9031 NEW TO, -0.2218
-0.9031 NEW YORK 0.0000
-0.9031 NEW ZEALAND, 0.0000
-0.8451 NEWS </s> -0.3010
-1.1461 NEWS AGENCIES 0.0000
-0.8451 NEWS CYCLE, 0.0000
-1.1461 NEWS THAT -0.2984
-1.1461 NEWS TO -0.2968
-0.3010 NEXT BIG -0.2430
-0.3010 NIGHT AND -0.2814
-1.2553 NO </s> -0.3010
-1.2553 NO AGENDA 0.0000
-1.2553 NO CONSONANTS 0.0000
-1.2553 NO HATERS -0.1249
-1.2553 NO IDEA -0.1761
-1.2553 NO JOB 0.0000
-0.9542 NO LOVE -0.1761
-1.2553 NO VACCINES 0.0000
-1.1461 NO, BUT -0.2858
-1.1461 NO, I'M -0.2788
-1.1461 NO, IT'S -0.2951
-0.6690 NO, NO, -0.1091
-1.1461 NO, THAT -0.2850
-0.3010 NOBODY HAS -0.2430
-0.6021 NOISE RATIO, 0.0000
-0.6021 NOISE SO -0.2926
-0.3010 NORMAL </s> -0.3010
-0.3010 NORMAL, IS -0.2742
-0.3010 NORTH AMERICA, 0.0000
-0.3010 NORTON </s> -0.3010
-0.3010 NORTON, LADIES 0.0000
-0.3010 NOSE WITH -0.2872
-1.2788 NOT A -0.2926
-1.5798 NOT BACTERIAL, 0.0000
-1.5798 NOT DISEASE, -0.1761
-1.5798 NOT HAVE -0.2950
-1.5798 NOT IT -0.2937
-1.2788 NOT LIKE -0.2840
-1.5798 NOT NECESSARILY -0.1761
-1.5798 NOT POSSIBLE -0.2218
-1.5798 NOT QUITE -0.1761
-1.5798 NOT READY 0.0000
-1.5798 NOT READY, 0.0000
-1.5798 NOT SURE 0.0000
-1.5798 NOT THAT -0.2984
-1.5798 NOT THE -0.2999
-1.2788 NOT TO -0.2882
-1.5798 NOT WAR -0.1761
-0.3010 NOTE OF -0.2843
-0.3010 NOTES TO -0.2947
-0.3010 NOTHING BUT -0.2935
-0.3010 NOTICED THAT, -0.1761
-0.6532 NOW </s> -0.3010
-1.2553 NOW ARE -0.2962
-1.2553 NOW EVERYBODY 0.0000
-0.9542 NOW I -0.2741
-1.2553 NOW THE -0.2987
-0.3010 NOW, IN -0.2909
-0.3010 NOW? </s> -0.3010
-0.6021 NUMBER OF -0.2977
-0.6021 NUMBER TWO, 0.0000
-0.9031 NUMBERS IN -0.2402
-0.9031 NUMBERS OR -0.2881
-0.9031 NUMBERS THAT -0.2931
-0.9031 NUMBERS UP -0.2762
-0.3010 NUMBERS, AS -0.2840
-0.6021 OBVIOUSLY KNOWLEDGE 0.0000
-0.6021 OBVIOUSLY WE'RE -0.2632
-0.3010 OBVIOUSLY, I -0.2990
-2.1206 OF 1918, 0.0000
-2.1206 OF ? -0.2752
-1.8195 OF AIR -0.2041
-2.1206 OF CAUSE 0.0000
-2.1206 OF FLU -0.2881
-2.1206 OF GOOD -0.2688
-2.1206 OF GOVERNMENT -0.1249
-2.1206 OF HERE, -0.2553
-1.8195 OF HYSTERIA 0.0000
-1.4216 OF IT -0.2389
-2.1206 OF LIKE, -0.2808
-2.1206 OF LIKE? 0.0000
-2.1206 OF MEXICO, -0.2632
-1.8195 OF MY -0.2688
-2.1206 OF NO -0.2762
-1.8195 OF OUR -0.2341
-1.8195 OF PEOPLE -0.2539
-2.1206 OF PEOPLE, -0.2788
-2.1206 OF PRECAUTION, 0.0000
-2.1206 OF PROTECTION 0.0000
-2.1206 OF SCAM -0.1761
-2.1206 OF SECURITY 0.0000
-0.8418 OF THE -0.2601
-2.1206 OF THESE -0.2304
-2.1206 OF THINGS -0.2632
-1.8195 OF THIS -0.2852
-2.1206 OF THIS? -0.1761
-1.6435 OF THOSE -0.2374
-2.1206 OF THREE 0.0000
-2.1206 OF UNDERSTANDING 0.0000
-1.8195 OF US -0.2041
-2.1206 OF WHAT -0.2518
-2.1206 OF WHEN, 0.0000
-2.1206 OF YEARS, -0.1761
-2.1206 OF YOU -0.2804
-0.3010 OF, THIS -0.2958
-0.3010 OF? </s> -0.3010
-0.3010 OFF IN -0.2977
-0.3010 OFFICE PC 0.0000
-0.3010 OFFICIALS ARE -0.2962
-0.3010 OFTEN IN -0.2977
-1.0000 OH COME -0.2688
-1.0000 OH GOD 0.0000
-0.6990 OH YEAH, -0.2430
-1.0000 OH YES, -0.2881
-0.6021 OKAY, I'M -0.2304
-0.6021 OKAY, THAT'S -0.2833
-0.3010 OKAY? </s> -0.3010
-0.6021 OLD </s> -0.3010
-0.6021 OLD CO-HOST 0.0000
-0.3010 OLDER FOLKS 0.0000
-0.3010 OLDS GETTING -0.2218
-1.3010 ON A -0.2840
-1.7782 ON IT, -0.2218
-1.7782 ON ONE -0.2156
-1.7782 ON PLANES 0.0000
-1.4771 ON REVISION3 0.0000
-1.7782 ON SOMETHING -0.2808
-1.4771 ON SWINE -0.0512
-0.7368 ON THE -0.2858
-1.4771 ON THERE -0.2808
-1.7782 ON THIS -0.2906
-1.3010 ON TWITTER -0.1761
-1.7782 ON TWITTER, 0.0000
-1.7782 ON YOUR -0.2825
-0.6021 ON, FROM -0.2747
-0.6021 ON, THERE -0.2374
-0.3010 ON? </s> -0.3010
-1.1461 ONE </s> -0.3010
-1.4472 ONE BIG -0.2430
-1.4472 ONE COMPANY 0.0000
-1.4472 ONE FOR -0.2852
-0.7482 ONE OF -0.2179
-1.4472 ONE ON -0.2131
-1.4472 ONE POINT -0.2218
-1.4472 ONE RIGHT -0.2730
-1.4472 ONE TO -0.2925
-0.6021 ONE, I -0.2741
-0.6021 ONE, IN -0.2909
-0.3010 ONES YOU -0.2970
-0.3010 ONLINE </s> -0.3010
-0.3010 ONTO YOUR -0.2632
-0.3010 OPPOSITE, SO -0.2840
-1.5315 OR ? -0.2926
-1.5315 OR A -0.2982
-1.5315 OR COUGH, 0.0000
-1.2304 OR FINANCE 0.0000
-1.5315 OR NOT -0.2894
-1.5315 OR SOMETHING, 0.0000
-1.5315 OR SOMEWHERE 0.0000
-1.5315 OR STATISTICS -0.1761
-1.5315 OR SWINE -0.2730
-1.2304 OR THE -0.2987
-1.5315 OR THREE, 0.0000
-1.5315 OR THURSDAY 0.0000
-1.5315 OR TWO -0.2553
-1.5315 OR WHATEVER -0.1249
-1.5315 OR YOU'RE -0.1383
-0.3010 OR, THAT -0.2984
-0.3010 OR? </s> -0.3010
-0.3010 ORDER FOR -0.2518
-0.7782 ORGANIZATION HAVE -0.2762
-0.7782 ORGANIZATION LIKE -0.2840
-0.7782 ORGANIZATION OR -0.2747
-0.3010 ORIGINALLY IT -0.2749
-1.2041 OTHER ? -0.2840
-1.2041 OTHER BAD 0.0000
-1.2041 OTHER BRANCHES 0.0000
-1.2041 OTHER NIGHT 0.0000
-1.2041 OTHER PEOPLE -0.2609
-1.2041 OTHER PEOPLE, -0.2788
-1.2041 OTHER SOURCES 0.0000
-1.2041 OTHER THING -0.2341
-1.1461 OUR ABILITY 0.0000
-1.1461 OUR BRAINS, 0.0000
-1.1461 OUR GOVERNMENT -0.2218
-1.1461 OUR HEALTH -0.2553
-1.1461 OUR INSTANT 0.0000
-1.1461 OUR SCHOOLS -0.2218
-1.1461 OUR WORLD -0.2632
-1.0792 OUT </s> -0.3010
-1.0792 OUT AROUND -0.2218
-1.0792 OUT FOR -0.2518
-0.7782 OUT OF -0.2944
-1.0792 OUT THERE -0.2910
-0.7782 OUT, PUT -0.2553
-0.7782 OUT, THOSE -0.2596
-0.7782 OUT, YES 0.0000
-0.3010 OUTBREAK??? </s> -0.3010
-0.7782 OUTBREAKS AND -0.2814
-0.7782 OUTBREAKS ARE -0.2962
-0.7782 OUTBREAKS IN -0.2977
-0.6021 OUTSIDE BUT -0.2935
-0.6021 OUTSIDE OF -0.2977
-0.6021 OVER 40 -0.1761
-0.6021 OVER YOUR -0.2825
-0.3010 OVERREACTION OF -0.2335
-0.3010 PAL, HEY 0.0000
-0.9031 PANDEMIC AND -0.2773
-1.2041 PANDEMIC CAN -0.2762
-1.2041 PANDEMIC COMING 0.0000
-1.2041 PANDEMIC OF -0.2977
-1.2041 PANDEMIC THAT -0.2984
-1.2041 PANDEMIC VARY 0.0000
-1.2041 PANDEMIC WAS -0.2935
-0.4771 PANDEMIC, AND -0.2814
-0.7782 PANDEMIC, I -0.2741
-0.3010 PANIC IN -0.2977
-0.9031 PARTICLES ? -0.2926
-0.9031 PARTICLES ARE -0.2813
-0.9031 PARTICLES END -0.1249
-0.9031 PARTICLES ONTO 0.0000
-0.6021 PARTICLES, AND -0.2952
-0.6021 PARTICLES, WHEN -0.2041
-0.3010 PARTICULAR SWINE -0.2430
-0.3010 PARTLY IS -0.2742
-0.7782 PATRICK </s> -0.3010
-0.7782 PATRICK NORTON 0.0000
-0.7782 PATRICK NORTON, 0.0000
-0.3010 PATRICK, BUT -0.2780
-0.3010 PAUSED, I -0.2990
-0.3010 PC AND -0.2991
-0.3010 PEACE TO -0.2947
-1.0544 PEOPLE </s> -0.3010
-1.3554 PEOPLE ARE -0.2762
-1.8325 PEOPLE COME -0.2688
-1.8325 PEOPLE DOING -0.2430
-1.8325 PEOPLE GO, -0.1761
-1.1335 PEOPLE HAVE -0.2698
-1.8325 PEOPLE IS -0.2742
-1.8325 PEOPLE LIKE -0.2926
-1.8325 PEOPLE ON -0.2788
-1.8325 PEOPLE OVER -0.1761
-1.8325 PEOPLE SNEEZE 0.0000
-1.8325 PEOPLE SORT 0.0000
-1.5315 PEOPLE SURVIVE 0.0000
-1.8325 PEOPLE UNDER 0.0000
-0.9294 PEOPLE WHO -0.1549
-0.3010 PEOPLE'S REACTION 0.0000
-1.3010 PEOPLE, BUT -0.2935
-1.3010 PEOPLE, ESPECIALLY 0.0000
-1.3010 PEOPLE, GET -0.2840
-1.3010 PEOPLE, HEALTH -0.2553
-1.3010 PEOPLE, I -0.2846
-1.3010 PEOPLE, NOT -0.2775
-1.3010 PEOPLE, OR -0.2881
-1.3010 PEOPLE, THAT -0.2850
-1.3010 PEOPLE, WHAT -0.2771
-1.3010 PEOPLE, YOU'RE -0.1383
-0.3010 PEOPLE? </s> -0.3010
-0.3010 PEOPLES IN -0.2402
-0.3010 PERCENTAGE OF -0.2258
-0.3010 PERFECT SENSE -0.1761
-1.0000 PERSON </s> -0.3010
-1.0000 PERSON AND -0.2834
-1.0000 PERSON SAID -0.1761
-0.6990 PERSON TO -0.2925
-0.3010 PERSPECTIVE COMPARED 0.0000
-0.6021 PHOTOGRAPHER </s> -0.3010
-0.6021 PHOTOGRAPHER MUST 0.0000
-0.3010 PICKED UP, -0.1761
-0.3010 PICTURES OF -0.2977
-0.6021 PLACE IN -0.2875
-0.6021 PLACE JASON 0.0000
-0.3010 PLACES, JAPAN 0.0000
-0.3010 PLAN AND -0.2991
-0.6021 PLANE TO -0.2989
-0.6021 PLANE YOU -0.2929
-0.3010 PLANES BECAUSE -0.2553
-0.3010 PLATINUM PLAN 0.0000
-0.3010 PLAY GAMES 0.0000
-0.3010 PLEASED TO -0.2989
-0.3010 PLEASED, HE'S 0.0000
-0.4771 POINT </s> -0.3010
-0.7782 POINT OR -0.2881
-0.6021 POINT, WELL -0.2430
-0.6021 POINT, YEAH -0.1461
-0.3010 POINTS ON -0.2131
-0.3010 POLLUTION OUTSIDE -0.1761
-0.3010 POOR CATHERINE -0.2218
-0.7782 POPULATION DIED -0.2688
-0.7782 POPULATION HAD -0.2632
-0.7782 POPULATION HAS -0.2430
-0.3010 POSITIVE NOTE 0.0000
-0.7782 POSSIBLE </s> -0.3010
-0.7782 POSSIBLE IN -0.2402
-0.7782 POSSIBLE TO -0.2947
-0.3010 POSSIBLY BOUGHT 0.0000
-0.3010 POST WORLD -0.2632
-0.3010 POUNDS </s> -0.3010
-0.3010 PRECAUTION, IF -0.2872
-0.6021 PRETTY DEPLORABLE 0.0000
-0.6021 PRETTY OFTEN 0.0000
-0.7782 PROBABLY BECAUSE -0.2900
-0.7782 PROBABLY CLOSER 0.0000
-0.7782 PROBABLY IMMUNE -0.1761
-0.3010 PROBLEM WITH -0.2872
-0.3010 PROOF THAT -0.2931
-0.9031 PROTECT HERSELF 0.0000
-0.9031 PROTECT THEMSELVES -0.1761
-0.9031 PROTECT YOUR -0.2825
-0.9031 PROTECT YOURSELF -0.2218
-0.3010 PROTECTION THAT -0.2656
-0.3010 PROVIDED BY -0.2430
-0.3010 PUBLISHED AN -0.2430
-0.3010 PULSE OF -0.2258
-1.0000 PUT A -0.2982
-1.0000 PUT ON -0.2788
-1.0000 PUT THE -0.2999
-1.0000 PUT THIS -0.2958
-1.0000 PUT YOU -0.2970
-0.3010 PUTS BACTERIAL 0.0000
-0.3010 QUARTER OF -0.2335
-0.6021 QUESTION </s> -0.3010
-0.6021 QUESTION OF -0.2977
-0.3010 QUESTION? </s> -0.3010
-0.3010 QUICK QUESTION -0.1761
-0.3010 QUICK, GET -0.2840
-0.3010 QUICKLY </s> -0.3010
-0.6021 QUITE FOLLOW -0.2218
-0.6021 QUITE POSSIBLE -0.2218
-0.3010 RADIO AT -0.2825
-0.3010 RATE OF -0.2910
-0.3010 RATIO, AND -0.2972
-0.3010 REACTION TO -0.2989
-0.7782 READ ALL -0.2341
-0.7782 READ AN -0.2430
-0.7782 READ SAID -0.1761
-0.3010 READING, IS -0.2981
-0.3010 READY TO -0.2968
-0.3010 READY, OUR -0.2688
-1.0000 REALLY </s> -0.3010
-1.0000 REALLY ? -0.2752
-1.0000 REALLY INTERESTING -0.2553
-1.0000 REALLY INTERESTING, -0.2218
-1.0000 REALLY QUITE -0.1761
-0.9031 REASON THAT -0.2877
-0.6021 REASON TO -0.2947
-0.9031 REASON WE'RE -0.2632
-0.3010 REASON, I -0.2909
-0.3010 REASONS OF -0.2977
-0.3010 RECORD, AND -0.2991
-0.3010 RECORDS AREN'T 0.0000
-0.3010 RED WINE, 0.0000
-0.3010 RELATED TO -0.2794
-0.3010 RELATED, IT'S -0.2951
-0.3010 RELATED? </s> -0.3010
-0.3010 RELATIVE OF -0.2335
-0.3010 RELATIVES, I -0.2741
-0.3010 REPLACEMENT </s> -0.3010
-0.3010 REPORT THAT -0.2984
-0.3010 REPORTED YET -0.1249
-0.3010 RESEARCH ON -0.2863
-0.3010 RESULT OF -0.2944
-0.3010 REVISION3 AND -0.2753
-0.4260 RIGHT </s> -0.3010
-1.2041 RIGHT NOW -0.1919
-1.2041 RIGHT NOW, 0.0000
-0.9031 RIGHT, AND -0.2834
-0.9031 RIGHT, BUT -0.2858
-0.9031 RIGHT, LIKE -0.2926
-0.9031 RIGHT, WE -0.2752
-0.3010 RILEY, LIKE -0.2926
-0.6021 ROAD </s> -0.3010
-0.6021 ROAD THAT -0.2984
-0.3010 ROOM </s> -0.3010
-0.3010 ROOM, WHO -0.2852
-0.3010 ROOM? GET -0.2840
-0.3010 S </s> -0.3010
-1.0792 SAID BEFORE, 0.0000
-1.0792 SAID I'M -0.2788
-0.6021 SAID IT -0.2632
-1.0792 SAID WE -0.2840
-0.3010 SAID, IT'S -0.2891
-0.6021 SAME THING -0.2688
-0.6021 SAME TIME -0.2688
-0.3010 SAME? </s> -0.3010
-0.3010 SANFORD </s> -0.3010
-0.3010 SANFORD) THE -0.2999
-0.3010 SARAH KICK 0.0000
-0.3010 SAVERS, HE -0.2218
-0.3010 SAW IT -0.2863
-0.3010 SAY THAT -0.2850
-0.7782 SAY, CATHERINE -0.2218
-0.7782 SAY, IN -0.2977
-0.7782 SAY, OH -0.2041
-0.3010 SAYING THAT -0.2931
-0.3010 SAYING? </s> -0.3010
-0.3010 SAYS HOW -0.2430
-0.3010 SCALE THE -0.2987
-0.6021 SCAM SCHOOL -0.2218
-0.6021 SCAM SCHOOL, -0.1761
-0.3010 SCARIER THAN -0.2041
-0.7782 SCARY </s> -0.3010
-0.7782 SCARY AND -0.2972
-0.7782 SCARY AT -0.2825
-0.7782 SCHOOL IN -0.2943
-0.7782 SCHOOL ON -0.2863
-0.7782 SCHOOL THERE -0.2910
-0.6021 SCHOOL, GREAT -0.2632
-0.6021 SCHOOL, OR -0.2881
-0.7782 SCHOOLS ARE -0.2962
-0.4771 SCHOOLS IN -0.2909
-0.3010 SCREEN SAVERS, 0.0000
-0.3010 SEARCH TERMS -0.1761
-0.3010 SEARCHES ON -0.2863
-0.3010 SECURITY AND -0.2952
-1.2553 SEE EVERYBODY, 0.0000
-1.2553 SEE HER 0.0000
-0.9542 SEE ON -0.2788
-1.2553 SEE SOMETHING -0.2808
-1.2553 SEE THE -0.2987
-1.2553 SEE THEM -0.2688
-1.2553 SEE THIS -0.2958
-1.2553 SEE YOU -0.2804
-0.3010 SEEING IN -0.2909
-0.3010 SEEMS LIKE, -0.2808
-0.3010 SEEN IS -0.2742
-0.3010 SELF </s> -0.3010
-0.3010 SELLING THESE -0.2788
-0.6021 SENSE OF -0.2977
-0.6021 SENSE TO -0.2968
-0.3010 SENTENCE OR? 0.0000
-0.3010 SEOUL </s> -0.3010
-0.4771 SERIOUSLY </s> -0.3010
-0.7782 SERIOUSLY IS -0.2981
-0.3010 SEVERAL YEARS, -0.1761
-0.3010 SHAPE THESE -0.2553
-1.1461 SHE HAPPENED 0.0000
-1.1461 SHE IS -0.2952
-1.1461 SHE LOOKS 0.0000
-1.1461 SHE MAY 0.0000
-1.1461 SHE MOCKS 0.0000
-1.1461 SHE SAID -0.2632
-1.1461 SHE WORE -0.1761
-0.7782 SHE'S LIKE, -0.2808
-0.7782 SHE'S TALKING -0.2041
-0.7782 SHE'S TRANSLATING 0.0000
-0.3010 SHOCKED IN -0.2977
-0.9031 SHOULD CALL -0.0969
-0.9031 SHOULD TALK 0.0000
-0.6021 SHOULD WEAR -0.1761
-1.0792 SHOW NOTES 0.0000
-1.0792 SHOW ON -0.2863
-1.0792 SHOW THAT -0.2984
-1.0792 SHOW TODAY -0.2430
-1.0792 SHOW UP -0.2218
-1.0792 SHOW UP, -0.1761
-0.3010 SHOW, GREAT -0.2632
-0.3010 SHOWING UP -0.2218
-0.3010 SHUT DOWN -0.1249
-0.3010 SHUTTING DOWN 0.0000
-0.3010 SHWOOD </s> -0.3010
-0.6990 SICK </s> -0.3010
-1.0000 SICK AND -0.2991
-1.0000 SICK PEOPLE -0.2946
-1.0000 SICK THAT -0.2984
-0.3010 SICK, IT'S -0.2951
-0.3010 SIDE BAR -0.1761
-0.3010 SIDEWAYS APPLE, 0.0000
-0.3010 SIGN UP -0.2762
-0.6021 SIGNAL AND -0.2991
-0.6021 SIGNAL TO -0.2989
-0.3010 SILLY JUST -0.2872
-0.3010 SIT IN -0.2402
-0.3010 SKYPE, MR 0.0000
-0.3010 SKYPEBOX NUMBER -0.1761
-0.3010 SLAPPED IT -0.2937
-0.3010 SLEEP </s> -0.3010
-0.3010 SMART ENOUGH -0.0792
-0.3010 SNEAK ATTACK, 0.0000
-0.3010 SNEEZE OR -0.2881
-0.3010 SNEEZING, AND -0.2991
-1.7160 SO A -0.2897
-1.7160 SO BY -0.2430
-1.7160 SO EASILY, 0.0000
-1.7160 SO FORTH, 0.0000
-1.4150 SO I -0.2719
-1.7160 SO IF -0.2272
-1.7160 SO IT -0.2937
-1.7160 SO IT'S -0.2951
-1.7160 SO LET'S 0.0000
-1.7160 SO MANY -0.2553
-1.4150 SO MUCH 0.0000
-1.7160 SO SCARY -0.2218
-1.7160 SO SHE -0.2688
-1.7160 SO THAN -0.2041
-1.4150 SO THAT'S -0.2742
-1.7160 SO THE -0.2976
-1.7160 SO THEY -0.2407
-1.7160 SO THEY'RE -0.2218
-1.4150 SO THIS -0.2576
-1.4150 SO WE -0.2752
-1.7160 SO WHICH -0.1461
-0.9031 SO, IF -0.2730
-0.9031 SO, THE -0.2999
-0.9031 SO, THIS -0.2798
-0.9031 SO, YEAH? 0.0000
-0.3010 SO? </s> -0.3010
-0.6021 SOLDIERS AT -0.1996
-0.6021 SOLDIERS OF -0.2335
-0.3010 SOLDIERS, INITIALLY, 0.0000
-1.1461 SOME ? -0.2752
-1.1461 SOME FORM 0.0000
-0.6690 SOME OF -0.2774
-1.1461 SOME OUTBREAKS -0.2218
-1.1461 SOME PEOPLE -0.2946
-0.3010 SOME, NOBODY 0.0000
-0.7782 SOMEBODY AND -0.2773
-0.7782 SOMEBODY JUST -0.2872
-0.7782 SOMEBODY JUST? 0.0000
-0.3010 SOMEHOW </s> -0.3010
-1.3424 SOMETHING COMPLETELY -0.1761
-1.3424 SOMETHING FROM -0.2881
-1.3424 SOMETHING LIKE -0.2663
-1.3424 SOMETHING ON -0.2788
-0.6435 SOMETHING THAT -0.2599
-1.3424 SOMETHING THAT'S -0.2833
-1.3424 SOMETHING THEY -0.2929
-0.3010 SOMETHING, BECAUSE -0.2553
-0.3010 SOMETIMES ALSO -0.2730
-0.3010 SOMEWHERE IN -0.2943
-0.3010 SOPHISTICATED IN -0.2977
-0.3010 SORRY </s> -0.3010
-0.3010 SORT OF -0.2977
-0.3010 SOURCES A -0.2869
-0.3010 SPEAK DIRECTLY 0.0000
-0.7782 SPEAKER IS -0.2981
-0.7782 SPEAKER ME -0.1461
-0.7782 SPEAKER OR -0.2747
-0.3010 SPECIAL EDITION 0.0000
-0.3010 SPECIALIST IN -0.2977
-0.3010 SPECIES MAKES -0.2218
-0.3010 SPECIFICALLY MULTIPLYING 0.0000
-0.3010 SPEND SO -0.2840
-0.6021 SPREAD SO -0.2926
-0.6021 SPREAD VERY -0.2825
-0.3010 SPREADING TO -0.2925
-0.3010 STARING POINT -0.1249
-0.9031 START SELLING 0.0000
-0.9031 START TRACKING 0.0000
-0.6021 START WEARING -0.1461
-0.3010 STARTED IN -0.2977
-0.7782 STARTING OFF 0.0000
-0.7782 STARTING POINT -0.1249
-0.7782 STARTING TO -0.2968
-0.3010 STATES AT -0.2825
-0.6021 STATES, 20 -0.2218
-0.6021 STATES, LIKE -0.2663
-0.6021 STATISTICS FOR -0.2852
-0.6021 STATISTICS ON -0.2131
-0.3010 STILL 13 -0.1761
-0.3010 STOP IT, -0.2218
-0.3010 STORIES </s> -0.3010
-0.3010 STORM TROOPER 0.0000
-0.3010 STORM, AN -0.2730
-0.7782 STORY AND -0.2733
-1.0792 STORY AS -0.2840
-1.0792 STORY IS -0.2833
-1.0792 STORY OF -0.2944
-1.0792 STORY PARTLY 0.0000
-0.3010 STORY, THE -0.2976
-0.3010 STRIKING STATISTICS -0.1761
-0.3010 STUDY, AS -0.2840
-0.6021 STUFF </s> -0.3010
-0.6021 STUFF COULD -0.2688
-0.6021 STUFF, AND -0.2952
-0.6021 STUFF, YOU -0.2929
-0.3010 SUB-TYPE, IT'S -0.2951
-0.3010 SUB-TYPES THAT -0.2958
-0.3010 SURE WHY -0.1761
-0.3010 SURGERIES IS -0.2923
-0.6021 SURGICAL MASK -0.2632
-0.6021 SURGICAL MASKS, 0.0000
-0.6021 SURVIVE </s> -0.3010
-0.6021 SURVIVE IT -0.2974
-0.3010 SURVIVED IN -0.2402
-0.5051 SWINE FLU -0.2009
-0.9031 SWINE FLU, -0.2041
-1.2041 SWINE OR -0.2881
-0.3010 SWITCH TO -0.2968
-0.7782 SYSTEM COMPROMISED -0.1761
-0.7782 SYSTEM IS -0.2923
-0.7782 SYSTEM THAT -0.2984
-0.3010 SYSTEMS </s> -0.3010
-0.3010 TAIL END -0.2218
-0.7782 TAKE HIGH -0.1761
-0.7782 TAKE IT -0.2974
-0.7782 TAKE PLACE -0.1761
-0.3010 TAKEN ITS 0.0000
-0.3010 TAKES THEM -0.2688
-0.7782 TAKING PICTURES 0.0000
-0.7782 TAKING THIS -0.2958
-0.7782 TAKING VERY -0.2632
-0.3010 TALK ABOUT -0.1963
-0.6990 TALKING ABOUT -0.1963
-1.0000 TALKING ABOUT, 0.0000
-0.6990 TALKING TO -0.2968
-0.3010 TEASE, LIKE -0.2752
-0.7782 TECH ANGLE, 0.0000
-0.4771 TECH IS -0.2952
-0.3010 TECH, EPISODE 0.0000
-0.3010 TECHNOLOGICAL AND -0.2991
-0.6021 TECHNOLOGY GOING -0.0792
-0.6021 TECHNOLOGY MAKES -0.2218
-0.3010 TECHZILLA SHOW -0.2632
-0.3010 TEND TO -0.2794
-0.6021 TERMS ARE -0.2962
-0.6021 TERMS OF -0.2977
-0.3010 TEXAS NOW -0.1919
-0.7782 TEXT -- -0.2374
-0.4771 TEXT STORY -0.1761
-1.0000 THAN NORMAL 0.0000
-1.0000 THAN NORMAL, 0.0000
-0.6990 THAN THE -0.2976
-1.0000 THAN THEY -0.2407
-0.6021 THANK GOODNESS 0.0000
-0.6021 THANK YOU -0.2804
-2.2201 THAT 120 0.0000
-1.7430 THAT </s> -0.3010
-1.9191 THAT ? -0.2571
-2.2201 THAT A -0.2869
-2.2201 THAT ACTUALLY -0.2632
-2.2201 THAT ALONE 0.0000
-2.2201 THAT ARE -0.2962
-2.2201 THAT BECAUSE -0.2788
-2.2201 THAT BIRD -0.2218
-2.2201 THAT CAN -0.2762
-2.2201 THAT CAUSED 0.0000
-2.2201 THAT COVERS 0.0000
-2.2201 THAT DAY -0.2218
-2.2201 THAT DESIGNED 0.0000
-2.2201 THAT DOESN'T -0.2218
-2.2201 THAT GETS 0.0000
-2.2201 THAT HAVE -0.2950
-1.9191 THAT I -0.2867
-1.7430 THAT IS -0.2772
-1.4420 THAT IT -0.2632
-1.9191 THAT IT'S -0.2831
-2.2201 THAT IT? -0.1761
-2.2201 THAT KILLED 0.0000
-2.2201 THAT MANY -0.2553
-2.2201 THAT MANY, -0.1761
-2.2201 THAT MAYBE -0.2632
-2.2201 THAT MY -0.2852
-2.2201 THAT ONLINE 0.0000
-2.2201 THAT OUR -0.2688
-2.2201 THAT PERSON -0.2553
-2.2201 THAT PUTS 0.0000
-2.2201 THAT SAID, 0.0000
-2.2201 THAT SAYS 0.0000
-2.2201 THAT SOME -0.1963
-2.2201 THAT STUFF, -0.1761
-1.3170 THAT THE -0.2810
-2.2201 THAT THERE -0.2139
-1.7430 THAT THEY -0.2676
-1.7430 THAT THIS -0.2280
-2.2201 THAT TIME, -0.2041
-2.2201 THAT VERY -0.2825
-1.4420 THAT WAS -0.2004
-1.7430 THAT WE -0.2571
-2.2201 THAT WEARING -0.2553
-1.9191 THAT WHAT -0.2341
-2.2201 THAT WILL -0.1963
-1.5211 THAT YOU -0.2453
-2.2201 THAT [INDISCERNIBLE], 0.0000
-1.6990 THAT'S A -0.2982
-1.6990 THAT'S ALL -0.2852
-1.6990 THAT'S ANOTHER -0.2430
-1.6990 THAT'S GOT -0.2553
-1.6990 THAT'S HOW -0.2730
-1.3979 THAT'S JUST -0.2730
-1.3979 THAT'S NOT -0.2775
-1.3979 THAT'S ONE -0.2156
-1.6990 THAT'S REALLY -0.2553
-1.6990 THAT'S RIGHT, -0.2430
-1.6990 THAT'S SOMETHING -0.2808
-1.6990 THAT'S STILL 0.0000
-1.6990 THAT'S THE -0.2999
-1.6990 THAT'S TWO -0.2553
-1.2218 THAT'S WHAT -0.2156
-1.6990 THAT'S WHEN -0.2553
-1.3979 THAT'S WHERE -0.2041
-1.6990 THAT'S WHERE, 0.0000
-1.6990 THAT'S WHO -0.2852
-0.6021 THAT, PATRICK, 0.0000
-0.6021 THAT, YOU -0.2970
-0.3010 THAT? </s> -0.3010
-2.2765 THE 1918 0.0000
-2.5775 THE 24 0.0000
-2.5775 THE 5'O 0.0000
-2.1004 THE ? -0.2663
-2.5775 THE ACTUAL 0.0000
-2.5775 THE AIR -0.2553
-2.5775 THE AIRBORNE -0.2218
-2.5775 THE ARMIES 0.0000
-2.5775 THE AVERAGE 0.0000
-2.2765 THE AVIAN 0.0000
-2.5775 THE BATTLESHIP 0.0000
-2.5775 THE BATTLESHIP? 0.0000
-2.5775 THE BEST 0.0000
-2.2765 THE BIG -0.1761
-2.5775 THE BIGGEST 0.0000
-2.5775 THE BIRD -0.2218
-2.5775 THE BODY'S 0.0000
-2.5775 THE BOOKS -0.1761
-2.5775 THE CAR -0.1761
-1.9754 THE CDC 0.0000
-2.5775 THE CDC, 0.0000
-2.5775 THE CENTER 0.0000
-2.5775 THE CENTERS 0.0000
-2.5775 THE CHAT 0.0000
-2.5775 THE CHEAP -0.1761
-2.5775 THE CONSPIRACY -0.2218
-2.5775 THE DEATHS 0.0000
-2.2765 THE DISEASE -0.1761
-2.5775 THE DISEASE, -0.1761
-2.5775 THE EARLY -0.1761
-2.5775 THE ELDERLY, 0.0000
-2.5775 THE ENTIRE 0.0000
-2.5775 THE EPIDEMIOLOGISTS -0.1761
-2.2765 THE FACT -0.2218
-2.5775 THE FARTHEST 0.0000
-2.5775 THE FATALITIES -0.1761
-2.5775 THE FATALITY 0.0000
-2.5775 THE FEDERAL 0.0000
-2.5775 THE FIRE 0.0000
-2.5775 THE FLIP-SIDE 0.0000
-2.2765 THE FLU -0.2467
-2.2765 THE GARAGE 0.0000
-2.5775 THE GARAGE, 0.0000
-2.1004 THE GATEWAY 0.0000
-2.5775 THE GATEWAY, 0.0000
-2.5775 THE GOOGLE -0.2430
-2.5775 THE GRAPHICS 0.0000
-2.2765 THE GREATEST 0.0000
-2.2765 THE HATERS 0.0000
-2.5775 THE HEALTH -0.2553
-2.5775 THE HECK 0.0000
-2.5775 THE HIGH? 0.0000
-2.5775 THE HOST 0.0000
-2.5775 THE HUMAN 0.0000
-2.5775 THE IDEA -0.1761
-2.5775 THE IMMUNITIES 0.0000
-2.5775 THE IMPORTANT 0.0000
-2.5775 THE INDIAN 0.0000
-2.5775 THE INFLUENZA, 0.0000
-2.5775 THE JUMP 0.0000
-2.5775 THE KILLER 0.0000
-2.2765 THE LAST -0.1249
-2.5775 THE LEAST, 0.0000
-2.5775 THE LUNGS 0.0000
-2.5775 THE MAJOR -0.1761
-2.5775 THE MANY -0.2553
-2.2765 THE MAP 0.0000
-2.5775 THE MAP, -0.2218
-2.5775 THE MARKETERS 0.0000
-2.5775 THE MASK -0.2632
-2.5775 THE MASKS 0.0000
-2.5775 THE MEETING -0.1761
-2.5775 THE MERE 0.0000
-2.5775 THE MIDDLE 0.0000
-2.5775 THE MILITARY 0.0000
-2.5775 THE MOST -0.2553
-2.2765 THE MUCOUS 0.0000
-2.5775 THE NEXT 0.0000
-2.5775 THE NOISE -0.1761
-2.2765 THE NUMBERS -0.1761
-2.5775 THE NUMBERS, 0.0000
-2.5775 THE OLDER 0.0000
-2.5775 THE ONE -0.2688
-2.5775 THE ONE, -0.1761
-2.5775 THE OPPOSITE, 0.0000
-2.1004 THE OTHER -0.2109
-2.2765 THE OUTBREAKS -0.1249
-1.9754 THE PANDEMIC -0.1761
-1.8785 THE PEOPLE -0.2167
-2.5775 THE PEOPLE, -0.2788
-2.5775 THE PERSON -0.2553
-2.5775 THE PERSPECTIVE 0.0000
-2.5775 THE PLACES, 0.0000
-2.5775 THE PLANE -0.1761
-2.5775 THE PLATINUM 0.0000
-2.2765 THE POPULATION -0.1249
-2.5775 THE POSITIVE 0.0000
-2.5775 THE PROBLEM 0.0000
-2.2765 THE PULSE 0.0000
-2.2765 THE REASON -0.1761
-2.5775 THE RECORDS 0.0000
-2.2765 THE ROAD 0.0000
-2.2765 THE SAME 0.0000
-2.5775 THE SAME? 0.0000
-2.5775 THE SCREEN 0.0000
-2.1004 THE SHOW -0.1761
-2.5775 THE SIDE 0.0000
-2.2765 THE SIGNAL 0.0000
-2.2765 THE SOLDIERS 0.0000
-2.2765 THE STORY -0.1761
-2.5775 THE STORY, 0.0000
-2.5775 THE STUDY, 0.0000
-2.5775 THE SUB-TYPES 0.0000
-2.5775 THE SURGICAL -0.1761
-2.2765 THE SWINE -0.1383
-2.5775 THE TAIL 0.0000
-2.5775 THE TECH -0.2218
-2.5775 THE TECHZILLA 0.0000
-2.1004 THE TEXT 0.0000
-2.1004 THE THING -0.1549
-1.9754 THE TIME, 0.0000
-2.5775 THE TODDLER 0.0000
-2.5775 THE TRANSLATOR 0.0000
-2.5775 THE TWIT -0.1761
-2.1004 THE U 0.0000
-2.1004 THE UNITED 0.0000
-2.5775 THE VIRAL -0.1761
-2.5775 THE VIRAL, 0.0000
-2.2765 THE WAY -0.1761
-1.9754 THE WORLD -0.1249
-2.5775 THE WRONG 0.0000
-2.5775 THE YEARLY 0.0000
-2.5775 THE YOUNG -0.1761
-0.3010 THE? </s> -0.3010
-0.3010 THEIR MOUTH, 0.0000
-1.1461 THEM FROM -0.2881
-1.1461 THEM HALF -0.1249
-1.1461 THEM IN -0.2977
-1.1461 THEM ON -0.2937
-1.1461 THEM SOMETIMES 0.0000
-1.1461 THEM TO -0.2989
-1.1461 THEM WEARING -0.2041
-0.3010 THEM, THEY -0.2929
-0.6021 THEMSELVES BUT -0.2858
-0.6021 THEMSELVES FROM -0.2881
-1.2041 THEN EUROPE, 0.0000
-1.2041 THEN I -0.2990
-1.2041 THEN IT'S -0.2951
-1.2041 THEN NORTH 0.0000
-1.2041 THEN THAT -0.2984
-1.2041 THEN THERE -0.2374
-1.2041 THEN YOU -0.2970
-1.2041 THEN YOU'RE -0.1383
-0.3010 THEORIES </s> -0.3010
-0.3010 THEORIES, SOMEHOW 0.0000
-1.6435 THERE -- -0.2808
-1.3424 THERE </s> -0.3010
-1.6435 THERE AND -0.2834
-1.6435 THERE ANY -0.1761
-0.8653 THERE ARE -0.2711
-1.6435 THERE COULD -0.1963
-1.6435 THERE HAVEN'T -0.2218
-0.7404 THERE IS -0.2585
-1.6435 THERE IS, -0.2632
-0.5229 THERE'S A -0.2897
-1.0000 THERE'S CERTAINLY, 0.0000
-1.0000 THERE'S GOING -0.0792
-0.3010 THEREFORE ALL -0.2341
-1.3010 THESE AEROSOLIZED -0.1761
-1.3010 THESE CONSPIRACY -0.2218
-1.0000 THESE DAYS, -0.1249
-1.3010 THESE NEWS -0.2688
-1.3010 THESE NOT -0.2775
-0.8239 THESE THINGS -0.1761
-1.3010 THESE THINGS, 0.0000
-1.7324 THEY ALSO -0.2730
-0.8873 THEY ARE -0.2659
-1.7324 THEY ARE, -0.1761
-1.4314 THEY DID -0.1249
-1.7324 THEY DIDN'T 0.0000
-1.7324 THEY DO -0.2788
-1.7324 THEY DON'T -0.2319
-1.7324 THEY GET -0.2840
-1.7324 THEY HADN'T 0.0000
-1.7324 THEY HAVE -0.2950
-1.7324 THEY HAVEN'T -0.2218
-1.7324 THEY HELP? 0.0000
-1.7324 THEY NOT -0.2894
-1.7324 THEY SAY, -0.2218
-1.7324 THEY SCALE 0.0000
-1.7324 THEY TEND 0.0000
-1.4314 THEY WEAR -0.1761
-1.4314 THEY WERE -0.1761
-0.7782 THEY'RE DOING -0.2430
-0.7782 THEY'RE FLYING -0.1761
-0.7782 THEY'RE SAYING 0.0000
-0.3010 THEY'VE SHUT 0.0000
-1.1461 THING ABOUT -0.2093
-1.1461 THING IS -0.2981
-0.8451 THING IS, -0.2218
-1.1461 THING THAT -0.2877
-1.1461 THING TO, -0.2218
-1.1461 THING YOU -0.2888
-0.3010 THING, THEY'VE 0.0000
-1.0792 THINGS ? -0.2926
-1.0792 THINGS CAN -0.2762
-1.0792 THINGS COSTS 0.0000
-1.0792 THINGS FLYING -0.1761
-1.0792 THINGS NOW -0.2762
-1.0792 THINGS TECHNOLOGICAL 0.0000
-0.3010 THINGS, BECAUSE -0.2900
-1.3010 THINK ANOTHER -0.2430
-1.3010 THINK I'M -0.2304
-1.0000 THINK IT'S -0.2891
-1.3010 THINK PEOPLE -0.2814
-1.3010 THINK PROBABLY -0.2218
-1.3010 THINK SOMETHING -0.1891
-1.0000 THINK THEY -0.2218
-1.3010 THINK YOU -0.2929
-0.3010 THINK, WELL, -0.2430
-0.3010 THINKING?? </s> -0.3010
-0.3010 THIRTY-DAY TRIAL, 0.0000
-1.6232 THIS </s> -0.3010
-1.9243 THIS ALL -0.2852
-1.9243 THIS BE -0.2688
-1.9243 THIS BECAUSE -0.2788
-1.9243 THIS COULD -0.1963
-1.6232 THIS DAY -0.1249
-1.3222 THIS FLU -0.2167
-1.9243 THIS FLU? 0.0000
-1.9243 THIS GOOGLE -0.1761
-1.9243 THIS H1N1 0.0000
-1.9243 THIS IN -0.2402
-1.0212 THIS IS -0.2488
-1.9243 THIS IS? 0.0000
-1.9243 THIS MORNING 0.0000
-1.9243 THIS ONE -0.2688
-1.9243 THIS ONE, -0.1761
-1.9243 THIS OUTBREAK??? 0.0000
-1.9243 THIS PARTICULAR 0.0000
-1.9243 THIS POSSIBLE -0.2218
-1.9243 THIS PRETTY -0.1761
-1.9243 THIS ROOM, 0.0000
-1.9243 THIS SERIOUSLY -0.2218
-1.6232 THIS STUFF 0.0000
-1.6232 THIS SWINE -0.1383
-1.9243 THIS WAS -0.2935
-1.4472 THIS WEEK -0.0969
-0.6021 THIS, AND -0.2991
-0.6021 THIS, SO? 0.0000
-0.6021 THIS? </s> -0.3010
-0.6021 THIS? IS -0.2923
-1.3424 THOSE - 0.0000
-1.0414 THOSE ARE -0.2762
-1.3424 THOSE DELL 0.0000
-1.3424 THOSE MASKS? 0.0000
-1.3424 THOSE MORONS 0.0000
-1.3424 THOSE OF -0.2944
-1.3424 THOSE OTHER -0.2730
-1.3424 THOSE PARTICLES -0.2430
-1.3424 THOSE STORIES 0.0000
-1.3424 THOSE WHO -0.2852
-0.3010 THOUGH NOW -0.1919
-0.3010 THOUGHT, NO -0.2762
-0.3010 THREE OF -0.2335
-0.3010 THREE, SO -0.2840
-0.3010 THRILLED ABOUT -0.2688
-0.3010 THROUGH TWO -0.2553
-0.3010 THROUGH? </s> -0.3010
-0.3010 THROW YOUR -0.2825
-0.3010 THURSDAY AND -0.2991
-0.3010 TIGHT ENOUGH -0.0792
-1.1461 TIME FOR -0.2932
-1.1461 TIME HE -0.2218
-1.1461 TIME I -0.2990
-0.8451 TIME ON -0.2041
-1.1461 TIME THIS -0.2576
-1.1461 TIME WITH -0.2872
-1.0000 TIME, IT -0.2974
-1.0000 TIME, THAT'S -0.2923
-0.6990 TIME, THE -0.2941
-1.0000 TIME, THEY -0.2846
-0.3010 TINY TUBE, 0.0000
-0.3010 TISSUES IN -0.2977
-2.3139 TO -- -0.2808
-2.3139 TO 20% 0.0000
-2.0128 TO 5% 0.0000
-2.3139 TO </s> -0.3010
-2.3139 TO ? -0.2926
-1.8367 TO A -0.2926
-2.0128 TO ALL -0.2156
-2.3139 TO AUDIBLE -0.1249
-1.3139 TO BE -0.1549
-2.0128 TO BECOME 0.0000
-2.3139 TO BEGIN 0.0000
-2.0128 TO COME -0.2341
-2.0128 TO CONTAIN 0.0000
-2.3139 TO COVER 0.0000
-2.3139 TO DETERMINE 0.0000
-2.3139 TO DIE 0.0000
-2.0128 TO DO -0.2553
-2.3139 TO EARLIER 0.0000
-2.3139 TO EGYPT 0.0000
-2.3139 TO END -0.1249
-2.3139 TO FOLLOW -0.2218
-2.0128 TO GET -0.2663
-2.3139 TO HAPPEN, -0.1761
-1.8367 TO HAVE -0.2698
-2.3139 TO INSTANTLY 0.0000
-2.3139 TO IT -0.2974
-2.0128 TO KEEP 0.0000
-2.0128 TO KNOW -0.1946
-2.3139 TO LEARN 0.0000
-2.3139 TO LIKE -0.2663
-2.0128 TO LOOK -0.1761
-2.3139 TO LOVE -0.2430
-2.0128 TO ME -0.1461
-2.3139 TO ME, -0.2218
-2.3139 TO MOCK 0.0000
-2.3139 TO MY -0.2852
-2.3139 TO NOISE -0.1761
-2.3139 TO PEOPLE -0.2946
-2.3139 TO PEOPLE, -0.2788
-2.3139 TO PLAY 0.0000
-1.7118 TO PROTECT 0.0000
-2.3139 TO PUT -0.2553
-2.3139 TO REALLY -0.2553
-2.3139 TO SAY, -0.2218
-1.8367 TO SEE -0.2218
-2.0128 TO SHOW -0.2218
-2.3139 TO SIT 0.0000
-2.3139 TO SLEEP 0.0000
-2.3139 TO SPEAK 0.0000
-1.8367 TO START -0.0969
-2.3139 TO STOP 0.0000
-2.3139 TO SWITCH 0.0000
-2.0128 TO TAKE -0.1249
-2.3139 TO TALK 0.0000
-2.3139 TO THAT -0.2984
-1.7118 TO THE -0.2929
-2.3139 TO THIS -0.2906
-2.0128 TO TRY 0.0000
-2.3139 TO TWITTER -0.2632
-2.3139 TO UNDERSTAND 0.0000
-2.3139 TO WASH 0.0000
-2.3139 TO WATCH 0.0000
-2.3139 TO WHATEVER -0.2218
-2.3139 TO WIN 0.0000
-2.3139 TO WIPE 0.0000
-2.3139 TO YOU -0.2970
-0.7782 TO, CATHERINE, 0.0000
-0.7782 TO, JUST -0.2872
-0.7782 TO, MAYBE -0.2632
-0.3010 TO? </s> -0.3010
-0.6021 TODAY </s> -0.3010
-0.9031 TODAY BUT -0.2935
-0.9031 TODAY IN -0.2977
-0.3010 TODAY? </s> -0.3010
-0.3010 TODDLER WITHOUT 0.0000
-0.3010 TODDLER, IT'S -0.2951
-0.3010 TOO MUCH -0.1761
-0.3010 TRACKING THIS -0.2906
-0.3010 TRAFFIC FATALITIES -0.1761
-0.3010 TRAFFIC, USEFUL -0.2218
-0.3010 TRANSLATING FOR -0.2852
-0.3010 TRANSLATOR HAD -0.2632
-0.3010 TRAVEL AND -0.2972
-0.3010 TRAVEL? </s> -0.3010
-0.3010 TRAVELLED THROUGH 0.0000
-0.3010 TRIAL, VISIT 0.0000
-0.3010 TROOPER OR -0.2881
-0.3010 TRUE BUT -0.2858
-0.6021 TRY FIND 0.0000
-0.6021 TRY TO -0.2947
-0.3010 TRYING TO -0.2989
-0.3010 TUBE, SO -0.2926
-0.3010 TUNE IN -0.2977
-0.6021 TWIT LOGO -0.2218
-0.6021 TWIT TODAY -0.1761
-0.3010 TWIT, THE -0.2976
-0.3010 TWIT; THIS -0.2852
-1.0792 TWITTER </s> -0.3010
-1.0792 TWITTER AND -0.2972
-1.0792 TWITTER HYSTERIA -0.1249
-1.0792 TWITTER IS -0.2981
-1.0792 TWITTER SEARCHES 0.0000
-1.0792 TWITTER THAT? 0.0000
-0.3010 TWITTER, USER 0.0000
-1.0000 TWO AIRPORTS 0.0000
-1.0000 TWO DAYS, -0.2218
-1.0000 TWO FREE -0.1761
-1.0000 TWO OR -0.2881
-1.0000 TWO OUT -0.2218
-0.3010 TWO, MR 0.0000
-0.3010 TYPICAL YEAR -0.1761
-0.3010 U </s> -0.3010
-0.3010 UH-HUH </s> -0.3010
-0.3010 UH-HUH, ABSOLUTELY, 0.0000
-0.3010 UNCHAIN YOURSELF -0.2218
-0.3010 UNDER 40 -0.1761
-0.3010 UNDERSTAND WHAT -0.2771
-0.3010 UNDERSTANDING THAT -0.2984
-0.7782 UNITED STATES 0.0000
-0.4771 UNITED STATES, 0.0000
-0.3010 UNKNOWN SPEAKER 0.0000
-1.2553 UP </s> -0.3010
-1.2553 UP BEING -0.2218
-1.2553 UP FOR -0.2518
-0.7782 UP IN -0.2205
-1.2553 UP OF, 0.0000
-1.2553 UP THE -0.2976
-1.2553 UP WITH -0.2872
-0.6021 UP, A -0.2982
-0.6021 UP, BUT -0.2780
-1.0000 US IN -0.2943
-1.0000 US INCREDIBLY -0.1761
-1.0000 US LIKE -0.2926
-1.0000 US ON -0.2131
-1.0000 US VIA 0.0000
-0.3010 USE THE -0.2964
-0.7782 USEFUL </s> -0.3010
-0.7782 USEFUL IF -0.2272
-0.7782 USEFUL LINKS -0.1761
-0.3010 USER ID 0.0000
-0.3010 VACCINES </s> -0.3010
-0.3010 VARY BETWEEN 0.0000
-1.3802 VERY CLOSE 0.0000
-1.0792 VERY CONCERNED 0.0000
-1.3802 VERY CONTAGIOUS, 0.0000
-1.3802 VERY GOOD -0.2688
-1.3802 VERY INTERESTING, -0.2218
-1.3802 VERY PLEASED 0.0000
-1.3802 VERY PLEASED, 0.0000
-1.3802 VERY QUICKLY 0.0000
-1.3802 VERY REASON, 0.0000
-1.0792 VERY SERIOUSLY -0.1249
-0.3010 VIA SKYPE, 0.0000
-0.6021 VIRAL PARTICLES -0.2430
-0.6021 VIRAL PARTICLES, -0.1761
-0.3010 VIRAL, NOT -0.2894
-0.3010 VIRUSES WILL -0.2688
-0.3010 VISIT GOTOMYPC 0.0000
-1.2041 WANT </s> -0.3010
-1.2041 WANT ? -0.2752
